booster[0]:
0:[f165<-9.53674316e-07] yes=1,no=2,missing=1,gain=42341.3711,cover=274836.5
	1:[f279<-9.53674316e-07] yes=3,no=4,missing=3,gain=22011.3574,cover=250010.5
		3:[f163<-9.53674316e-07] yes=7,no=8,missing=7,gain=19396.5898,cover=235531
			7:[f153<-9.53674316e-07] yes=15,no=16,missing=15,gain=13053.1973,cover=219644.75
				15:[f42<-9.53674316e-07] yes=31,no=32,missing=31,gain=11707.834,cover=206133.25
					31:leaf=-0.0777762681,cover=169003
					32:leaf=0.108268648,cover=37130.25
				16:[f175<-9.53674316e-07] yes=33,no=34,missing=33,gain=535.974609,cover=13511.5
					33:leaf=-0.361783028,cover=12887.25
					34:leaf=-0.077009201,cover=624.25
			8:[f153<-9.53674316e-07] yes=17,no=18,missing=17,gain=989.063477,cover=15886.25
				17:[f175<-9.53674316e-07] yes=35,no=36,missing=35,gain=550.259766,cover=14661.25
					35:leaf=0.276675373,cover=12343.25
					36:leaf=0.436093152,cover=2318
				18:[f175<-9.53674316e-07] yes=37,no=38,missing=37,gain=134.625107,cover=1225
					37:leaf=-0.0158848129,cover=1075.5
					38:leaf=0.287043214,cover=149.5
		4:[f142<-9.53674316e-07] yes=9,no=10,missing=9,gain=780.648438,cover=14479.5
			9:[f153<-9.53674316e-07] yes=19,no=20,missing=19,gain=572.904297,cover=13634.5
				19:[f175<-9.53674316e-07] yes=39,no=40,missing=39,gain=411.355469,cover=13151.75
					39:leaf=0.348166019,cover=11204
					40:leaf=0.497780651,cover=1947.75
				20:[f175<-9.53674316e-07] yes=41,no=42,missing=41,gain=79.809166,cover=482.75
					41:leaf=-0.00521134958,cover=430.75
					42:leaf=0.384905666,cover=52
			10:[f175<-9.53674316e-07] yes=21,no=22,missing=21,gain=139.729126,cover=845
				21:[f153<-9.53674316e-07] yes=43,no=44,missing=43,gain=92.4195099,cover=722.75
					43:leaf=0.0433734953,cover=663
					44:leaf=-0.343209893,cover=59.75
				22:[f174<-9.53674316e-07] yes=45,no=46,missing=45,gain=24.5012512,cover=122.25
					45:leaf=0.468493164,cover=72
					46:leaf=0.190243915,cover=50.25
	2:[f153<-9.53674316e-07] yes=5,no=6,missing=5,gain=945.28125,cover=24826
		5:[f175<-9.53674316e-07] yes=11,no=12,missing=11,gain=792.386719,cover=23841.25
			11:[f142<-9.53674316e-07] yes=23,no=24,missing=23,gain=579.037109,cover=18530.25
				23:[f163<-9.53674316e-07] yes=47,no=48,missing=47,gain=451.298828,cover=17630.75
					47:leaf=0.363891482,cover=14199.25
					48:leaf=0.485331386,cover=3431.5
				24:[f279<-9.53674316e-07] yes=49,no=50,missing=49,gain=97.2910309,cover=899.5
					49:leaf=0.100387603,cover=773
					50:leaf=0.383529454,cover=126.5
			12:[f174<-9.53674316e-07] yes=25,no=26,missing=25,gain=95.1962891,cover=5311
				25:[f202<-9.53674316e-07] yes=51,no=52,missing=51,gain=5.12695313,cover=2982
					51:leaf=0.543885648,cover=2971.5
					52:leaf=0.286956549,cover=10.5
				26:[f163<-9.53674316e-07] yes=53,no=54,missing=53,gain=43.8730469,cover=2329
					53:leaf=0.437484294,cover=1787.75
					54:leaf=0.537482738,cover=541.25
		6:[f163<-9.53674316e-07] yes=13,no=14,missing=13,gain=159.114853,cover=984.75
			13:[f175<-9.53674316e-07] yes=27,no=28,missing=27,gain=70.725769,cover=713
				27:[f142<-9.53674316e-07] yes=55,no=56,missing=55,gain=52.7833481,cover=607
					55:leaf=0.0190217402,cover=551
					56:leaf=-0.284210533,cover=56
				28:[f174<-9.53674316e-07] yes=57,no=58,missing=57,gain=33.0248947,cover=106
					57:leaf=0.388505757,cover=64.25
					58:leaf=0.0456140377,cover=41.75
			14:[f115<-9.53674316e-07] yes=29,no=30,missing=29,gain=26.3638,cover=271.75
				29:[f142<-9.53674316e-07] yes=59,no=60,missing=59,gain=17.3485413,cover=250.5
					59:leaf=0.347033918,cover=235
					60:leaf=0.0181818195,cover=15.5
				30:[f109<-9.53674316e-07] yes=61,no=62,missing=61,gain=8.35284424,cover=21.25
					61:leaf=0.104761913,cover=14.75
					62:leaf=-0.280000001,cover=6.5
booster[1]:
0:[f165<-9.53674316e-07] yes=1,no=2,missing=1,gain=21649.2129,cover=272124.094
	1:[f142<-9.53674316e-07] yes=3,no=4,missing=3,gain=11420.3984,cover=248289.563
		3:[f124<-9.53674316e-07] yes=7,no=8,missing=7,gain=10458.0947,cover=235324.359
			7:[f112<-9.53674316e-07] yes=15,no=16,missing=15,gain=3279.56152,cover=39877.7344
				15:[f276<-9.53674316e-07] yes=31,no=32,missing=31,gain=2184.05127,cover=33269.0273
					31:leaf=-0.127608836,cover=29209.2734
					32:leaf=0.107205905,cover=4059.75586
				16:[f250<-9.53674316e-07] yes=33,no=34,missing=33,gain=758.10791,cover=6608.70654
					33:leaf=-0.386869758,cover=5045.74023
					34:leaf=-0.147627175,cover=1562.96606
			8:[f98<-9.53674316e-07] yes=17,no=18,missing=17,gain=9279.12891,cover=195446.609
				17:[f279<-9.53674316e-07] yes=35,no=36,missing=35,gain=5433.3042,cover=158537.016
					35:leaf=0.0473711826,cover=147160.656
					36:leaf=0.262552708,cover=11376.3652
				18:[f272<-9.53674316e-07] yes=37,no=38,missing=37,gain=2803.09766,cover=36909.6016
					37:leaf=-0.245801464,cover=9382.29785
					38:leaf=-0.0559282564,cover=27527.3027
		4:[f279<-9.53674316e-07] yes=9,no=10,missing=9,gain=1095.21484,cover=12965.2109
			9:[f161<-9.53674316e-07] yes=19,no=20,missing=19,gain=420.076172,cover=12126.082
				19:[f149<-9.53674316e-07] yes=39,no=40,missing=39,gain=361.483398,cover=11808.3271
					39:leaf=-0.353389919,cover=8206.70703
					40:leaf=-0.23921968,cover=3601.62036
				20:[f98<-9.53674316e-07] yes=41,no=42,missing=41,gain=21.07897,cover=317.754669
					41:leaf=0.0629559755,cover=271.235077
					42:leaf=-0.153642178,cover=46.5195808
			10:[f148<-9.53674316e-07] yes=21,no=22,missing=21,gain=83.0814362,cover=839.129395
				21:[f134<-9.53674316e-07] yes=43,no=44,missing=43,gain=28.8587284,cover=549.69519
					43:leaf=-0.0572577566,cover=443.604828
					44:leaf=0.116239935,cover=106.090385
				22:[f153<-9.53674316e-07] yes=45,no=46,missing=45,gain=32.0770493,cover=289.434174
					45:leaf=0.202761874,cover=268.339478
					46:leaf=-0.175219655,cover=21.0947037
	2:[f279<-9.53674316e-07] yes=5,no=6,missing=5,gain=522.439453,cover=23834.5215
		5:[f153<-9.53674316e-07] yes=11,no=12,missing=11,gain=487.9375,cover=20690.0234
			11:[f142<-9.53674316e-07] yes=23,no=24,missing=23,gain=286.566406,cover=19792.8398
				23:[f40<-9.53674316e-07] yes=47,no=48,missing=47,gain=253.095703,cover=18845.3379
					47:leaf=0.26371026,cover=12861.1357
					48:leaf=0.338523477,cover=5984.20117
				24:[f159<-9.53674316e-07] yes=49,no=50,missing=49,gain=61.9880676,cover=947.502197
					49:leaf=0.0919644386,cover=849.791077
					50:leaf=0.343426079,cover=97.7110748
			12:[f40<-9.53674316e-07] yes=25,no=26,missing=25,gain=48.9013901,cover=897.184265
				25:[f111<-9.53674316e-07] yes=51,no=52,missing=51,gain=34.2716522,cover=621.973206
					51:leaf=-0.00867689028,cover=595.35321
					52:leaf=0.333153963,cover=26.619978
				26:[f161<-9.53674316e-07] yes=53,no=54,missing=53,gain=32.3095627,cover=275.21109
					53:leaf=0.102216624,cover=213.912308
					54:leaf=0.34863618,cover=61.2987747
		6:[f142<-9.53674316e-07] yes=13,no=14,missing=13,gain=18.3056641,cover=3144.49756
			13:[f276<-9.53674316e-07] yes=27,no=28,missing=27,gain=10.1323242,cover=2969.70557
				27:[f264<-9.53674316e-07] yes=55,no=56,missing=55,gain=7.90625,cover=1721.60266
					55:leaf=0.396345645,cover=1596.26331
					56:leaf=0.310452223,cover=125.339264
				28:[f117<-9.53674316e-07] yes=57,no=58,missing=57,gain=1.91064453,cover=1248.10291
					57:leaf=0.43023476,cover=1236.07813
					58:leaf=0.264107853,cover=12.024828
			14:[f103<-9.53674316e-07] yes=29,no=30,missing=29,gain=7.46429443,cover=174.792068
				29:[f153<-9.53674316e-07] yes=59,no=60,missing=59,gain=4.7716217,cover=167.837189
					59:leaf=0.325644016,cover=160.455521
					60:leaf=0.0682345256,cover=7.38166475
				30:[f27<-9.53674316e-07] yes=61,no=62,missing=61,gain=3.52269053,cover=6.9548831
					61:leaf=0.254325718,cover=2.13867426
					62:leaf=-0.140038848,cover=4.81620884
booster[2]:
0:[f173<-9.53674316e-07] yes=1,no=2,missing=1,gain=27007.084,cover=268790.438
	1:[f163<-9.53674316e-07] yes=3,no=4,missing=3,gain=11537.2334,cover=256398.516
		3:[f165<-9.53674316e-07] yes=7,no=8,missing=7,gain=7702.73438,cover=237340.297
			7:[f153<-9.53674316e-07] yes=15,no=16,missing=15,gain=6559.46191,cover=221949.203
				15:[f3<-9.53674316e-07] yes=31,no=32,missing=31,gain=6297.84766,cover=208806.172
					31:leaf=-0.0684246272,cover=135120.328
					32:leaf=0.0406024717,cover=73685.8516
				16:[f191<-9.53674316e-07] yes=33,no=34,missing=33,gain=474.293945,cover=13143.0195
					33:leaf=-0.261733651,cover=12465.4785
					34:leaf=-0.00399495056,cover=677.541138
			8:[f279<-9.53674316e-07] yes=17,no=18,missing=17,gain=425.161621,cover=15391.0928
				17:[f276<-9.53674316e-07] yes=35,no=36,missing=35,gain=304.554688,cover=13551.3457
					35:leaf=0.130894423,cover=9910.88867
					36:leaf=0.232392877,cover=3640.45679
				18:[f264<-9.53674316e-07] yes=37,no=38,missing=37,gain=13.1466064,cover=1839.74768
					37:leaf=0.320092201,cover=1672.36597
					38:leaf=0.228607148,cover=167.381699
		4:[f153<-9.53674316e-07] yes=9,no=10,missing=9,gain=607.634766,cover=19058.2285
			9:[f40<-9.53674316e-07] yes=19,no=20,missing=19,gain=361.444336,cover=17634.7402
				19:[f117<-9.53674316e-07] yes=39,no=40,missing=39,gain=284.638184,cover=14754.3213
					39:leaf=0.217181444,cover=14346.3682
					40:leaf=-0.0368619822,cover=407.953644
				20:[f264<-9.53674316e-07] yes=41,no=42,missing=41,gain=29.8503418,cover=2880.41797
					41:leaf=0.335600048,cover=2645.22949
					42:leaf=0.222105578,cover=235.188309
			10:[f115<-9.53674316e-07] yes=21,no=22,missing=21,gain=104.086746,cover=1423.48962
				21:[f40<-9.53674316e-07] yes=43,no=44,missing=43,gain=87.0550842,cover=1323.86377
					43:leaf=0.0146109229,cover=1117.97571
					44:leaf=0.22647278,cover=205.888077
				22:[f165<-9.53674316e-07] yes=45,no=46,missing=45,gain=15.3919067,cover=99.6258774
					45:leaf=-0.325897485,cover=80.3645248
					46:leaf=-0.0262213778,cover=19.2613583
	2:[f165<-9.53674316e-07] yes=5,no=6,missing=5,gain=264.191406,cover=12391.9297
		5:[f279<-9.53674316e-07] yes=11,no=12,missing=11,gain=138.853516,cover=9391.40625
			11:[f163<-9.53674316e-07] yes=23,no=24,missing=23,gain=62.5507813,cover=8130.59521
				23:[f264<-9.53674316e-07] yes=47,no=48,missing=47,gain=68.8027344,cover=6805.49805
					47:leaf=0.503362536,cover=6207.07324
					48:leaf=0.394853741,cover=598.425171
				24:[f117<-9.53674316e-07] yes=49,no=50,missing=49,gain=12.888916,cover=1325.09692
					49:leaf=0.425535202,cover=1298.25
					50:leaf=0.204058021,cover=26.8469429
			12:[f20<-9.53674316e-07] yes=25,no=26,missing=25,gain=7.64685059,cover=1260.81104
				25:[f41<-9.53674316e-07] yes=51,no=52,missing=51,gain=5.69549561,cover=464.805298
					51:leaf=-0.0631856173,cover=2.83898497
					52:leaf=0.343015105,cover=461.966309
				26:[f129<-9.53674316e-07] yes=53,no=54,missing=53,gain=2.97741699,cover=796.005798
					53:leaf=0.345031291,cover=148.37851
					54:leaf=0.404028445,cover=647.627319
		6:[f115<-9.53674316e-07] yes=13,no=14,missing=13,gain=8.78759766,cover=3000.52393
			13:[f280<-9.53674316e-07] yes=27,no=28,missing=27,gain=6.12841797,cover=2975.75732
				27:[f45<-9.53674316e-07] yes=55,no=56,missing=55,gain=1.63964844,cover=647.966675
					55:leaf=0.133321762,cover=3.41785765
					56:leaf=0.396299392,cover=644.548828
				28:[f121<-9.53674316e-07] yes=57,no=58,missing=57,gain=10.8459473,cover=2327.79053
					57:leaf=0.328882456,cover=826.979858
					58:leaf=0.374373347,cover=1500.81079
			14:[f98<-9.53674316e-07] yes=29,no=30,missing=29,gain=16.2070007,cover=24.766592
				29:[f140<-9.53674316e-07] yes=59,no=60,missing=59,gain=4.70928192,cover=17.525877
					59:leaf=0.370237827,cover=16.2221355
					60:leaf=-0.138205811,cover=1.30374122
				30:[f276<-9.53674316e-07] yes=61,no=62,missing=61,gain=7.28845501,cover=7.24071598
					61:leaf=-0.361729115,cover=5.05266476
					62:leaf=0.211480975,cover=2.18805122
booster[3]:
0:[f173<-9.53674316e-07] yes=1,no=2,missing=1,gain=15191.5361,cover=264661.594
	1:[f119<-9.53674316e-07] yes=3,no=4,missing=3,gain=6954.36768,cover=253354.297
		3:[f13<-9.53674316e-07] yes=7,no=8,missing=7,gain=5636.57813,cover=188762.719
			7:[f163<-9.53674316e-07] yes=15,no=16,missing=15,gain=4668.92139,cover=177783.75
				15:[f122<-9.53674316e-07] yes=31,no=32,missing=31,gain=4115.50146,cover=166569.141
					31:leaf=-0.0988531634,cover=103866.156
					32:leaf=-0.00152286107,cover=62702.9844
				16:[f165<-9.53674316e-07] yes=33,no=34,missing=33,gain=301.727051,cover=11214.6084
					33:leaf=0.115202181,cover=9270.74902
					34:leaf=0.245214984,cover=1943.85864
			8:[f98<-9.53674316e-07] yes=17,no=18,missing=17,gain=1108.0791,cover=10978.9736
				17:[f200<-9.53674316e-07] yes=35,no=36,missing=35,gain=687.681152,cover=7800.32275
					35:leaf=0.19839935,cover=6794.92627
					36:leaf=0.46423164,cover=1005.39642
				18:[f279<-9.53674316e-07] yes=37,no=38,missing=37,gain=215.490005,cover=3178.65088
					37:leaf=-0.000374828087,cover=2926.93188
					38:leaf=0.28836,cover=251.718918
		4:[f142<-9.53674316e-07] yes=9,no=10,missing=9,gain=2722.58936,cover=64591.5664
			9:[f267<-9.53674316e-07] yes=19,no=20,missing=19,gain=1710.09473,cover=60770.0859
				19:[f279<-9.53674316e-07] yes=39,no=40,missing=39,gain=1279.28467,cover=59834.7852
					39:leaf=0.0719793439,cover=53946.457
					40:leaf=0.219239339,cover=5888.32568
				20:[f277<-9.53674316e-07] yes=41,no=42,missing=41,gain=25.9770508,cover=935.300659
					41:leaf=0.348764211,cover=106.56852
					42:leaf=0.51345551,cover=828.732178
			10:[f279<-9.53674316e-07] yes=21,no=22,missing=21,gain=208.383179,cover=3821.48145
				21:[f165<-9.53674316e-07] yes=43,no=44,missing=43,gain=105.602783,cover=3378.43701
					43:leaf=-0.209059924,cover=3114.40625
					44:leaf=-0.0114110205,cover=264.030792
				22:[f0<-9.53674316e-07] yes=45,no=46,missing=45,gain=22.4189148,cover=443.044556
					45:leaf=-0.000669177272,cover=387.25885
					46:leaf=0.201175764,cover=55.7857246
	2:[f165<-9.53674316e-07] yes=5,no=6,missing=5,gain=47.7099609,cover=11307.29
		5:[f264<-9.53674316e-07] yes=11,no=12,missing=11,gain=40.6679688,cover=8762.8916
			11:[f279<-9.53674316e-07] yes=23,no=24,missing=23,gain=26.6181641,cover=8020.64404
				23:[f115<-9.53674316e-07] yes=47,no=48,missing=47,gain=24.3779297,cover=7034.40723
					47:leaf=0.372928053,cover=6972.96045
					48:leaf=0.178823218,cover=61.446701
				24:[f20<-9.53674316e-07] yes=49,no=50,missing=49,gain=8.36462402,cover=986.236816
					49:leaf=0.278638422,cover=365.708527
					50:leaf=0.339466244,cover=620.528259
			12:[f98<-9.53674316e-07] yes=25,no=26,missing=25,gain=10.9052734,cover=742.247681
				25:[f142<-9.53674316e-07] yes=51,no=52,missing=51,gain=7.46801758,cover=637.209595
					51:leaf=0.315211564,cover=583.049927
					52:leaf=0.192006901,cover=54.1596222
				26:[f41<-9.53674316e-07] yes=53,no=54,missing=53,gain=17.5875053,cover=105.038109
					53:leaf=0.0531367846,cover=44.9753876
					54:leaf=0.301760823,cover=60.0627213
		6:[f115<-9.53674316e-07] yes=13,no=14,missing=13,gain=8.08422852,cover=2544.39868
			13:[f28<-9.53674316e-07] yes=27,no=28,missing=27,gain=6.36181641,cover=2520.35498
				27:[f277<-9.53674316e-07] yes=55,no=56,missing=55,gain=6.46911621,cover=1131.82483
					55:leaf=0.284149915,cover=964.57782
					56:leaf=0.352476656,cover=167.247025
				28:[f94<-9.53674316e-07] yes=57,no=58,missing=57,gain=2.91748047,cover=1388.53015
					57:leaf=0.329872429,cover=1350.10449
					58:leaf=0.231642619,cover=38.4256439
			14:[f98<-9.53674316e-07] yes=29,no=30,missing=29,gain=6.77671242,cover=24.0436592
				29:[f124<-9.53674316e-07] yes=59,no=60,missing=59,gain=2.38364029,cover=16.0129433
					59:leaf=-0.0565559343,cover=1.84577417
					60:leaf=0.277998418,cover=14.1671696
				30:[f105<-9.53674316e-07] yes=61,no=62,missing=61,gain=4.27252722,cover=8.03071499
					61:leaf=-0.38791281,cover=1.90755022
					62:leaf=0.0474812277,cover=6.12316513
booster[4]:
0:[f173<-9.53674316e-07] yes=1,no=2,missing=1,gain=8893.55957,cover=260817.516
	1:[f264<-9.53674316e-07] yes=3,no=4,missing=3,gain=5173.23145,cover=250981.453
		3:[f276<-9.53674316e-07] yes=7,no=8,missing=7,gain=5271.65283,cover=228549.484
			7:[f42<-9.53674316e-07] yes=15,no=16,missing=15,gain=4934.01416,cover=201775.031
				15:[f119<-9.53674316e-07] yes=31,no=32,missing=31,gain=4083.56445,cover=164573.406
					31:leaf=-0.0586302541,cover=121352.109
					32:leaf=0.0487550013,cover=43221.2891
				16:[f3<-9.53674316e-07] yes=33,no=34,missing=33,gain=1384.22803,cover=37201.6328
					33:leaf=0.0419708639,cover=21825.7598
					34:leaf=0.159488618,cover=15375.873
			8:[f90<-9.53674316e-07] yes=17,no=18,missing=17,gain=1304.39844,cover=26774.4473
				17:[f193<-9.53674316e-07] yes=35,no=36,missing=35,gain=932.441406,cover=21203.9629
					35:leaf=0.0866139159,cover=20338.8828
					36:leaf=0.404472083,cover=865.080444
				18:[f108<-9.53674316e-07] yes=37,no=38,missing=37,gain=232.664551,cover=5570.48438
					37:leaf=0.277578861,cover=5261.72559
					38:leaf=0.00959521346,cover=308.758789
		4:[f193<-9.53674316e-07] yes=9,no=10,missing=9,gain=806.3125,cover=22431.9688
			9:[f98<-9.53674316e-07] yes=19,no=20,missing=19,gain=548.472656,cover=22126.4609
				19:[f163<-9.53674316e-07] yes=39,no=40,missing=39,gain=428.953369,cover=18268.6387
					39:leaf=-0.136922821,cover=17527.0938
					40:leaf=0.0959215015,cover=741.545715
				20:[f279<-9.53674316e-07] yes=41,no=42,missing=41,gain=146.430664,cover=3857.8208
					41:leaf=-0.264499545,cover=3688.23193
					42:leaf=0.0204846077,cover=169.588928
			10:[f90<-9.53674316e-07] yes=21,no=22,missing=21,gain=11.787262,cover=305.508026
				21:[f104<-9.53674316e-07] yes=43,no=44,missing=43,gain=8.93664551,cover=215.778534
					43:leaf=0.263336092,cover=166.755798
					44:leaf=0.415629506,cover=49.0227356
				22:[f98<-9.53674316e-07] yes=45,no=46,missing=45,gain=3.89225769,cover=89.7294846
					45:leaf=0.471469522,cover=70.3741531
					46:leaf=0.287208408,cover=19.3553333
	2:[f153<-9.53674316e-07] yes=5,no=6,missing=5,gain=73.7783203,cover=9836.06543
		5:[f280<-9.53674316e-07] yes=11,no=12,missing=11,gain=48.7285156,cover=9459.73438
			11:[f43<-9.53674316e-07] yes=23,no=24,missing=23,gain=5.06677246,cover=1597.70667
				23:[f198<-9.53674316e-07] yes=47,no=48,missing=47,gain=0.668649197,cover=2.38289952
					47:leaf=-0.171488792,cover=1.27695107
					48:leaf=0.0706035122,cover=1.10594845
				24:[f276<-9.53674316e-07] yes=49,no=50,missing=49,gain=3.22802734,cover=1595.32373
					49:leaf=0.32918492,cover=1119.94019
					50:leaf=0.364029735,cover=475.383514
			12:[f3<-9.53674316e-07] yes=25,no=26,missing=25,gain=38.480957,cover=7862.02832
				25:[f90<-9.53674316e-07] yes=51,no=52,missing=51,gain=23.0681152,cover=4380.66357
					51:leaf=0.250925094,cover=3489.42871
					52:leaf=0.305865139,cover=891.234558
				26:[f157<-9.53674316e-07] yes=53,no=54,missing=53,gain=12.4494629,cover=3481.36475
					53:leaf=0.305931121,cover=3469.83496
					54:leaf=-0.00582317309,cover=11.5299053
		6:[f115<-9.53674316e-07] yes=13,no=14,missing=13,gain=16.1287689,cover=376.330139
			13:[f99<-9.53674316e-07] yes=27,no=28,missing=27,gain=11.4034424,cover=359.63324
				27:[f163<-9.53674316e-07] yes=55,no=56,missing=55,gain=9.22460938,cover=291.058563
					55:leaf=0.161452562,cover=216.566284
					56:leaf=0.28588596,cover=74.4922791
				28:[f218<-9.53674316e-07] yes=57,no=58,missing=57,gain=9.97275925,cover=68.5746765
					57:leaf=-0.00721574668,cover=52.5991516
					58:leaf=0.257110983,cover=15.975522
			14:[f265<-9.53674316e-07] yes=29,no=30,missing=29,gain=6.47919655,cover=16.6969051
				29:[f47<-9.53674316e-07] yes=59,no=60,missing=59,gain=3.81494904,cover=10.4323406
					59:leaf=-0.490836412,cover=3.30257869
					60:leaf=-0.110458367,cover=7.1297617
				30:[f89<-9.53674316e-07] yes=61,no=62,missing=61,gain=8.47490406,cover=6.26456547
					61:leaf=0.316950798,cover=4.34829473
					62:leaf=-0.322719812,cover=1.91627049
booster[5]:
0:[f173<-9.53674316e-07] yes=1,no=2,missing=1,gain=5356.80518,cover=257668.172
	1:[f142<-9.53674316e-07] yes=3,no=4,missing=3,gain=5017.42383,cover=249202.766
		3:[f191<-9.53674316e-07] yes=7,no=8,missing=7,gain=4433.05518,cover=236645.031
			7:[f117<-9.53674316e-07] yes=15,no=16,missing=15,gain=4470.46191,cover=226222.391
				15:[f141<-9.53674316e-07] yes=31,no=32,missing=31,gain=4317.99023,cover=219177.016
					31:leaf=-0.00559219811,cover=207353.891
					32:leaf=0.180796653,cover=11823.1289
				16:[f221<-9.53674316e-07] yes=33,no=34,missing=33,gain=318.002441,cover=7045.38135
					33:leaf=-0.284015983,cover=4652.80518
					34:leaf=-0.149320453,cover=2392.57617
			8:[f196<-9.53674316e-07] yes=17,no=18,missing=17,gain=543.114258,cover=10422.6348
				17:[f112<-9.53674316e-07] yes=35,no=36,missing=35,gain=326.098145,cover=8491.04785
					35:leaf=0.20629096,cover=5622.80566
					36:leaf=0.0819460154,cover=2868.2417
				18:[f113<-9.53674316e-07] yes=37,no=38,missing=37,gain=80.4160156,cover=1931.58704
					37:leaf=0.252389342,cover=635.69519
					38:leaf=0.38361159,cover=1295.89185
		4:[f129<-9.53674316e-07] yes=9,no=10,missing=9,gain=418.088867,cover=12557.7305
			9:[f165<-9.53674316e-07] yes=19,no=20,missing=19,gain=299.711914,cover=11793.9424
				19:[f159<-9.53674316e-07] yes=39,no=40,missing=39,gain=224.524414,cover=10927.4688
					39:leaf=-0.224921271,cover=10502.1602
					40:leaf=-0.00257354951,cover=425.307922
				20:[f153<-9.53674316e-07] yes=41,no=42,missing=41,gain=42.4499588,cover=866.474304
					41:leaf=-0.0133483727,cover=798.135376
					42:leaf=-0.258086324,cover=68.3388748
			10:[f193<-9.53674316e-07] yes=21,no=22,missing=21,gain=34.5788383,cover=763.787537
				21:[f264<-9.53674316e-07] yes=43,no=44,missing=43,gain=20.7654495,cover=737.489441
					43:leaf=0.0358810239,cover=619.680908
					44:leaf=-0.101024926,cover=117.80854
				22:[f103<-9.53674316e-07] yes=45,no=46,missing=45,gain=6.29951477,cover=26.2980804
					45:leaf=0.405910164,cover=23.5766449
					46:leaf=-0.056282308,cover=2.72143412
	2:[f153<-9.53674316e-07] yes=5,no=6,missing=5,gain=46.9501953,cover=8465.41309
		5:[f141<-9.53674316e-07] yes=11,no=12,missing=11,gain=43.9707031,cover=8121.68408
			11:[f264<-9.53674316e-07] yes=23,no=24,missing=23,gain=39.6152344,cover=7437.51514
				23:[f280<-9.53674316e-07] yes=47,no=48,missing=47,gain=29.2905273,cover=6752.34863
					47:leaf=0.286402315,cover=1195.55762
					48:leaf=0.234080374,cover=5556.79102
				24:[f245<-9.53674316e-07] yes=49,no=50,missing=49,gain=12.5844269,cover=685.166443
					49:leaf=0.173668206,cover=667.992432
					50:leaf=-0.0824356675,cover=17.1740112
			12:[f115<-9.53674316e-07] yes=25,no=26,missing=25,gain=2.79937744,cover=684.16925
				25:[f45<-9.53674316e-07] yes=51,no=52,missing=51,gain=1.41186523,cover=677.980591
					51:leaf=0.19300653,cover=13.345417
					52:leaf=0.320487827,cover=664.635132
				26:[f2<-9.53674316e-07] yes=53,no=54,missing=53,gain=4.2012639,cover=6.1886878
					53:leaf=-0.191825375,cover=2.13157296
					54:leaf=0.255031556,cover=4.05711508
		6:[f94<-9.53674316e-07] yes=13,no=14,missing=13,gain=16.4748764,cover=343.728699
			13:[f89<-9.53674316e-07] yes=27,no=28,missing=27,gain=7.91423035,cover=313.734009
				27:[f107<-9.53674316e-07] yes=55,no=56,missing=55,gain=6.73792267,cover=253.096619
					55:leaf=0.19021596,cover=224.903793
					56:leaf=0.0333420187,cover=28.1928253
				28:[f141<-9.53674316e-07] yes=57,no=58,missing=57,gain=7.3417902,cover=60.6373787
					57:leaf=-0.0199494436,cover=41.6766739
					58:leaf=0.200903654,cover=18.9607067
			14:[f126<-9.53674316e-07] yes=29,no=30,missing=29,gain=10.9388199,cover=29.9947014
				29:[f37<-9.53674316e-07] yes=59,no=60,missing=59,gain=2.46120191,cover=9.44629478
					59:leaf=0.250780702,cover=7.26236057
					60:leaf=-0.0785505921,cover=2.18393445
				30:[f138<-9.53674316e-07] yes=61,no=62,missing=61,gain=5.51242256,cover=20.5484047
					61:leaf=-0.112641037,cover=16.8205585
					62:leaf=-0.490918666,cover=3.72784686
booster[6]:
0:[f165<-9.53674316e-07] yes=1,no=2,missing=1,gain=4634.71436,cover=255011.484
	1:[f98<-9.53674316e-07] yes=3,no=4,missing=3,gain=4196.95361,cover=236432.125
		3:[f121<-9.53674316e-07] yes=7,no=8,missing=7,gain=4015.37695,cover=194552.938
			7:[f112<-9.53674316e-07] yes=15,no=16,missing=15,gain=5371.20703,cover=127185.484
				15:[f108<-9.53674316e-07] yes=31,no=32,missing=31,gain=2340.29297,cover=115199.156
					31:leaf=0.0117063094,cover=105481.492
					32:leaf=-0.142141536,cover=9717.65918
				16:[f49<-9.53674316e-07] yes=33,no=34,missing=33,gain=762.824707,cover=11986.3262
					33:leaf=-0.275690734,cover=7042.17334
					34:leaf=-0.121917285,cover=4944.15283
			8:[f112<-9.53674316e-07] yes=17,no=18,missing=17,gain=2737.48975,cover=67367.4531
				17:[f13<-9.53674316e-07] yes=35,no=36,missing=35,gain=868.492676,cover=36502.043
					35:leaf=0.10556116,cover=31013.8711
					36:leaf=0.235034332,cover=5488.17285
				18:[f141<-9.53674316e-07] yes=37,no=38,missing=37,gain=1242.26416,cover=30865.4082
					37:leaf=-0.0256167445,cover=24959.8418
					38:leaf=0.127379656,cover=5905.56494
		4:[f141<-9.53674316e-07] yes=9,no=10,missing=9,gain=1447.18018,cover=41879.1875
			9:[f276<-9.53674316e-07] yes=19,no=20,missing=19,gain=1144.27197,cover=38268.1758
				19:[f129<-9.53674316e-07] yes=39,no=40,missing=39,gain=646.370605,cover=32845.4141
					39:leaf=-0.14021191,cover=31830.1152
					40:leaf=0.10286396,cover=1015.29785
				20:[f193<-9.53674316e-07] yes=41,no=42,missing=41,gain=363.952362,cover=5422.76416
					41:leaf=-0.00162509049,cover=5156.93652
					42:leaf=0.357695878,cover=265.827301
			10:[f162<-9.53674316e-07] yes=21,no=22,missing=21,gain=132.994568,cover=3611.00928
				21:[f264<-9.53674316e-07] yes=43,no=44,missing=43,gain=104.689682,cover=3458.18579
					43:leaf=0.0925051197,cover=3104.13452
					44:leaf=-0.0795098692,cover=354.051361
				22:[f31<-9.53674316e-07] yes=45,no=46,missing=45,gain=10.0620117,cover=152.82341
					45:leaf=0.240938738,cover=49.9038315
					46:leaf=0.414932877,cover=102.919579
	2:[f153<-9.53674316e-07] yes=5,no=6,missing=5,gain=301.127441,cover=18579.3594
		5:[f248<-9.53674316e-07] yes=11,no=12,missing=11,gain=221.199707,cover=17686.5645
			11:[f121<-9.53674316e-07] yes=23,no=24,missing=23,gain=227.129395,cover=16490.1074
				23:[f90<-9.53674316e-07] yes=47,no=48,missing=47,gain=145.191284,cover=8884.5459
					47:leaf=0.0953765139,cover=7163.76123
					48:leaf=0.192446366,cover=1720.78479
				24:[f142<-9.53674316e-07] yes=49,no=50,missing=49,gain=98.5097656,cover=7605.56152
					49:leaf=0.193589196,cover=7138.85156
					50:leaf=0.0511969477,cover=466.709534
			12:[f247<-9.53674316e-07] yes=25,no=26,missing=25,gain=16.7021484,cover=1196.45679
				25:[f280<-9.53674316e-07] yes=51,no=52,missing=51,gain=14.1994934,cover=369.601929
					51:leaf=0.322649419,cover=100.768898
					52:leaf=0.188551992,cover=268.833038
				26:[f126<-9.53674316e-07] yes=53,no=54,missing=53,gain=8.72442627,cover=826.854858
					53:leaf=0.322414041,cover=628.860657
					54:leaf=0.246224925,cover=197.994232
		6:[f99<-9.53674316e-07] yes=13,no=14,missing=13,gain=30.9043789,cover=892.794678
			13:[f122<-9.53674316e-07] yes=27,no=28,missing=27,gain=22.7374058,cover=693.461487
				27:[f278<-9.53674316e-07] yes=55,no=56,missing=55,gain=15.2898874,cover=418.231934
					55:leaf=-0.0229208246,cover=396.289276
					56:leaf=-0.274923652,cover=21.9426517
				28:[f40<-9.53674316e-07] yes=57,no=58,missing=57,gain=9.70528793,cover=275.229553
					57:leaf=0.0372399986,cover=193.933304
					58:leaf=0.160484567,cover=81.2962723
			14:[f184<-9.53674316e-07] yes=29,no=30,missing=29,gain=20.6438026,cover=199.333206
				29:[f42<-9.53674316e-07] yes=59,no=60,missing=59,gain=12.8725662,cover=181.697815
					59:leaf=-0.190859333,cover=153.277679
					60:leaf=0.0279470161,cover=28.4201488
				30:[f21<-9.53674316e-07] yes=61,no=62,missing=61,gain=3.22591257,cover=17.6353855
					61:leaf=-0.0847818851,cover=3.00747228
					62:leaf=0.231864437,cover=14.6279125
booster[7]:
0:[f153<-9.53674316e-07] yes=1,no=2,missing=1,gain=3542.24023,cover=251632.828
	1:[f3<-9.53674316e-07] yes=3,no=4,missing=3,gain=3456.16064,cover=237588.406
		3:[f148<-9.53674316e-07] yes=7,no=8,missing=7,gain=2775.97827,cover=150670.188
			7:[f119<-9.53674316e-07] yes=15,no=16,missing=15,gain=1976.34534,cover=126705.766
				15:[f129<-9.53674316e-07] yes=31,no=32,missing=31,gain=1560.21191,cover=94210.0547
					31:leaf=-0.0637243465,cover=90842.5313
					32:leaf=0.14419961,cover=3367.52173
				16:[f32<-9.53674316e-07] yes=33,no=34,missing=33,gain=1300.33264,cover=32495.7148
					33:leaf=0.0992512405,cover=13823.7266
					34:leaf=-0.0221271385,cover=18671.9883
			8:[f90<-9.53674316e-07] yes=17,no=18,missing=17,gain=1036.32031,cover=23964.4121
				17:[f49<-9.53674316e-07] yes=35,no=36,missing=35,gain=692.750977,cover=19125.6738
					35:leaf=-0.0257978141,cover=7450.87354
					36:leaf=0.0912793279,cover=11674.7998
				18:[f155<-9.53674316e-07] yes=37,no=38,missing=37,gain=115.634277,cover=4838.73828
					37:leaf=0.189455748,cover=4556.86572
					38:leaf=0.387510657,cover=281.872528
		4:[f110<-9.53674316e-07] yes=9,no=10,missing=9,gain=1865.21655,cover=86918.2266
			9:[f115<-9.53674316e-07] yes=19,no=20,missing=19,gain=2066.72266,cover=83264.1953
				19:[f20<-9.53674316e-07] yes=39,no=40,missing=39,gain=1243.02637,cover=82225.8516
					39:leaf=-0.00541350618,cover=14878.0195
					40:leaf=0.0904005244,cover=67347.8281
				20:[f9<-9.53674316e-07] yes=41,no=42,missing=41,gain=23.9660645,cover=1038.34705
					41:leaf=-0.311003387,cover=584.098022
					42:leaf=-0.405394197,cover=454.248962
			10:[f221<-9.53674316e-07] yes=21,no=22,missing=21,gain=315.084656,cover=3654.03271
				21:[f20<-9.53674316e-07] yes=43,no=44,missing=43,gain=90.6363525,cover=2648.23462
					43:leaf=-0.307864785,cover=602.299255
					44:leaf=-0.175211817,cover=2045.9353
				22:[f9<-9.53674316e-07] yes=45,no=46,missing=45,gain=43.5862961,cover=1005.7981
					45:leaf=0.0454971232,cover=577.543457
					46:leaf=-0.0806743875,cover=428.254608
	2:[f3<-9.53674316e-07] yes=5,no=6,missing=5,gain=479.547607,cover=14044.415
		5:[f161<-9.53674316e-07] yes=11,no=12,missing=11,gain=124.420654,cover=7312.29004
			11:[f42<-9.53674316e-07] yes=23,no=24,missing=23,gain=78.6589355,cover=7051.15674
				23:[f173<-9.53674316e-07] yes=47,no=48,missing=47,gain=62.0493164,cover=5949.24512
					47:leaf=-0.2224738,cover=5851.40771
					48:leaf=0.0182472505,cover=97.837471
				24:[f105<-9.53674316e-07] yes=49,no=50,missing=49,gain=18.4552917,cover=1101.91174
					49:leaf=-0.162522331,cover=665.042358
					50:leaf=-0.082822606,cover=436.869324
			12:[f248<-9.53674316e-07] yes=25,no=26,missing=25,gain=11.4744816,cover=261.133301
				25:[f34<-9.53674316e-07] yes=51,no=52,missing=51,gain=12.0532217,cover=249.723328
					51:leaf=-0.0313789062,cover=222.251892
					52:leaf=0.17589514,cover=27.4714413
				26:[f250<-9.53674316e-07] yes=53,no=54,missing=53,gain=3.50041866,cover=11.4099646
					53:leaf=0.401026607,cover=7.26091003
					54:leaf=0.0496787876,cover=4.149055
		6:[f115<-9.53674316e-07] yes=13,no=14,missing=13,gain=168.18927,cover=6732.125
			13:[f221<-9.53674316e-07] yes=27,no=28,missing=27,gain=180.601349,cover=6192.28125
				27:[f42<-9.53674316e-07] yes=55,no=56,missing=55,gain=104.437622,cover=4946.27246
					55:leaf=-0.118352108,cover=4063.01758
					56:leaf=-0.00452860771,cover=883.254761
				28:[f117<-9.53674316e-07] yes=57,no=58,missing=57,gain=104.139977,cover=1246.00867
					57:leaf=0.0816783085,cover=916.981201
					58:leaf=-0.11482387,cover=329.027466
			14:[f161<-9.53674316e-07] yes=29,no=30,missing=29,gain=16.8556824,cover=539.843933
				29:[f110<-9.53674316e-07] yes=59,no=60,missing=59,gain=10.9971924,cover=512.692627
					59:leaf=-0.285276443,cover=380.364807
					60:leaf=-0.181853324,cover=132.327789
				30:[f221<-9.53674316e-07] yes=61,no=62,missing=61,gain=9.54856491,cover=27.1513481
					61:leaf=-0.132950366,cover=18.8390484
					62:leaf=0.235341385,cover=8.31229973
booster[8]:
0:[f173<-9.53674316e-07] yes=1,no=2,missing=1,gain=2788.07959,cover=249285.125
	1:[f142<-9.53674316e-07] yes=3,no=4,missing=3,gain=2703.16626,cover=242348.734
		3:[f163<-9.53674316e-07] yes=7,no=8,missing=7,gain=2407.96313,cover=230712.641
			7:[f98<-9.53674316e-07] yes=15,no=16,missing=15,gain=2409.5415,cover=215301.922
				15:[f110<-9.53674316e-07] yes=31,no=32,missing=31,gain=2043.95374,cover=177506.531
					31:leaf=0.0150271198,cover=172221.047
					32:leaf=-0.174355,cover=5285.47656
				16:[f219<-9.53674316e-07] yes=33,no=34,missing=33,gain=809.289795,cover=37795.3906
					33:leaf=-0.0914308652,cover=32665.6699
					34:leaf=0.0367369428,cover=5129.71973
			8:[f40<-9.53674316e-07] yes=17,no=18,missing=17,gain=256.01709,cover=15410.7178
				17:[f170<-9.53674316e-07] yes=35,no=36,missing=35,gain=230.938354,cover=13146.6641
					35:leaf=0.114590958,cover=11849.2471
					36:leaf=-0.0187141318,cover=1297.41748
				18:[f264<-9.53674316e-07] yes=37,no=38,missing=37,gain=30.3839111,cover=2264.05322
					37:leaf=0.221220627,cover=2073.4187
					38:leaf=0.0953606963,cover=190.634506
		4:[f191<-9.53674316e-07] yes=9,no=10,missing=9,gain=214.674316,cover=11636.0957
			9:[f132<-9.53674316e-07] yes=19,no=20,missing=19,gain=194.517334,cover=11110.584
				19:[f163<-9.53674316e-07] yes=39,no=40,missing=39,gain=178.152344,cover=10996.5059
					39:leaf=-0.168601513,cover=10231.207
					40:leaf=-0.0185161103,cover=765.298523
				20:[f89<-9.53674316e-07] yes=41,no=42,missing=41,gain=6.19688416,cover=114.078705
					41:leaf=0.279361486,cover=80.5999374
					42:leaf=0.120447613,cover=33.4787636
			10:[f276<-9.53674316e-07] yes=21,no=22,missing=21,gain=30.0105419,cover=525.511047
				21:[f46<-9.53674316e-07] yes=43,no=44,missing=43,gain=22.78652,cover=373.339752
					43:leaf=-0.0624173619,cover=229.46759
					44:leaf=0.0894193202,cover=143.872162
				22:[f176<-9.53674316e-07] yes=45,no=46,missing=45,gain=12.646637,cover=152.171265
					45:leaf=0.181474015,cover=138.067047
					46:leaf=-0.110531293,cover=14.1042271
	2:[f142<-9.53674316e-07] yes=5,no=6,missing=5,gain=60.4919434,cover=6936.39893
		5:[f280<-9.53674316e-07] yes=11,no=12,missing=11,gain=45.9716797,cover=6558.93115
			11:[f221<-9.53674316e-07] yes=23,no=24,missing=23,gain=5.71020508,cover=1081.79065
				23:[f276<-9.53674316e-07] yes=47,no=48,missing=47,gain=5.02307129,cover=1079.34998
					47:leaf=0.239919335,cover=795.399963
					48:leaf=0.289511859,cover=283.950012
				24:[f37<-9.53674316e-07] yes=49,no=50,missing=49,gain=2.19762683,cover=2.4405942
					49:leaf=0.095751442,cover=1.25613594
					50:leaf=-0.346332788,cover=1.18445826
			12:[f41<-9.53674316e-07] yes=25,no=26,missing=25,gain=39.3859863,cover=5477.14063
				25:[f118<-9.53674316e-07] yes=51,no=52,missing=51,gain=25.6553955,cover=2734.52173
					51:leaf=0.179375738,cover=1810.4762
					52:leaf=0.117636263,cover=924.045593
				26:[f218<-9.53674316e-07] yes=53,no=54,missing=53,gain=19.0565186,cover=2742.6189
					53:leaf=0.193528831,cover=1955.23328
					54:leaf=0.249478638,cover=787.385498
		6:[f13<-9.53674316e-07] yes=13,no=14,missing=13,gain=11.5675125,cover=377.46759
			13:[f98<-9.53674316e-07] yes=27,no=28,missing=27,gain=15.4508867,cover=349.572601
				27:[f42<-9.53674316e-07] yes=55,no=56,missing=55,gain=8.35253906,cover=293.749939
					55:leaf=0.0601405241,cover=242.427505
					56:leaf=0.192874312,cover=51.3224411
				28:[f111<-9.53674316e-07] yes=57,no=58,missing=57,gain=5.81123018,cover=55.8226624
					57:leaf=-0.117239103,cover=51.1445236
					58:leaf=0.204625472,cover=4.67814016
			14:[f153<-9.53674316e-07] yes=29,no=30,missing=29,gain=1.91549683,cover=27.8949795
				29:[f31<-9.53674316e-07] yes=59,no=60,missing=59,gain=1.04397964,cover=25.9301205
					59:leaf=0.150645152,cover=7.71869946
					60:leaf=0.31753546,cover=18.211422
				30:leaf=-0.021297263,cover=1.96485937
booster[9]:
0:[f8<-9.53674316e-07] yes=1,no=2,missing=1,gain=2647.82568,cover=246667.781
	1:[f279<-9.53674316e-07] yes=3,no=4,missing=3,gain=2013.78308,cover=231154.156
		3:[f112<-9.53674316e-07] yes=7,no=8,missing=7,gain=1998.56177,cover=218753.094
			7:[f92<-9.53674316e-07] yes=15,no=16,missing=15,gain=1668.60815,cover=152080.719
				15:[f49<-9.53674316e-07] yes=31,no=32,missing=31,gain=1989.56287,cover=144943.578
					31:leaf=0.00242767693,cover=94366.1016
					32:leaf=0.0761689097,cover=50577.4688
				16:[f247<-9.53674316e-07] yes=33,no=34,missing=33,gain=295.811157,cover=7137.14355
					33:leaf=-0.142374232,cover=6319.99316
					34:leaf=0.0493868552,cover=817.150574
			8:[f250<-9.53674316e-07] yes=17,no=18,missing=17,gain=2024.59814,cover=66672.375
				17:[f121<-9.53674316e-07] yes=35,no=36,missing=35,gain=1422.27783,cover=39534.4141
					35:leaf=-0.175375015,cover=11119.7539
					36:leaf=-0.0488203205,cover=28414.6602
				18:[f141<-9.53674316e-07] yes=37,no=38,missing=37,gain=515.411255,cover=27137.9629
					37:leaf=0.00199490436,cover=21994.207
					38:leaf=0.107472122,cover=5143.75684
		4:[f153<-9.53674316e-07] yes=9,no=10,missing=9,gain=140.823242,cover=12401.0693
			9:[f20<-9.53674316e-07] yes=19,no=20,missing=19,gain=126.071289,cover=11877.2012
				19:[f12<-9.53674316e-07] yes=39,no=40,missing=39,gain=76.7119141,cover=5051.44141
					39:leaf=0.111665048,cover=4381.88037
					40:leaf=0.00263547525,cover=669.560974
				20:[f132<-9.53674316e-07] yes=41,no=42,missing=41,gain=70.3621826,cover=6825.75977
					41:leaf=0.152900398,cover=6498.86084
					42:leaf=0.29561922,cover=326.898987
			10:[f105<-9.53674316e-07] yes=21,no=22,missing=21,gain=22.789175,cover=523.867798
				21:[f166<-9.53674316e-07] yes=43,no=44,missing=43,gain=21.8121815,cover=296.545319
					43:leaf=-0.110391825,cover=261.106323
					44:leaf=0.137730047,cover=35.4389954
				22:[f219<-9.53674316e-07] yes=45,no=46,missing=45,gain=16.5250874,cover=227.322464
					45:leaf=0.00748827728,cover=186.685974
					46:leaf=0.216545969,cover=40.6364822
	2:[f40<-9.53674316e-07] yes=5,no=6,missing=5,gain=351.976807,cover=15513.626
		5:[f175<-9.53674316e-07] yes=11,no=12,missing=11,gain=237.702881,cover=15049.1006
			11:[f3<-9.53674316e-07] yes=23,no=24,missing=23,gain=228.315674,cover=14021.0781
				23:[f42<-9.53674316e-07] yes=47,no=48,missing=47,gain=109.123047,cover=8042.75195
					47:leaf=-0.184981391,cover=6839.14893
					48:leaf=-0.086914748,cover=1203.60278
				24:[f265<-9.53674316e-07] yes=49,no=50,missing=49,gain=103.758423,cover=5978.32617
					49:leaf=-0.110777847,cover=4960.6665
					50:leaf=-0.00561375264,cover=1017.65997
			12:[f173<-9.53674316e-07] yes=25,no=26,missing=25,gain=45.3768959,cover=1028.02283
				25:[f0<-9.53674316e-07] yes=51,no=52,missing=51,gain=26.5554466,cover=666.83197
					51:leaf=-0.0582918078,cover=574.42511
					52:leaf=0.11420425,cover=92.4068527
				26:[f109<-9.53674316e-07] yes=53,no=54,missing=53,gain=19.3972969,cover=361.190796
					53:leaf=0.114416845,cover=341.556946
					54:leaf=-0.185901538,cover=19.6338291
		6:[f245<-9.53674316e-07] yes=13,no=14,missing=13,gain=14.5934296,cover=464.524841
			13:[f3<-9.53674316e-07] yes=27,no=28,missing=27,gain=7.01133728,cover=450.120758
				27:[f280<-9.53674316e-07] yes=55,no=56,missing=55,gain=18.4540482,cover=240.963364
					55:leaf=0.207827628,cover=102.1446
					56:leaf=0.0399282537,cover=138.818756
				28:[f207<-9.53674316e-07] yes=57,no=58,missing=57,gain=5.07391357,cover=209.15741
					57:leaf=0.194413349,cover=205.232071
					58:leaf=-0.125320077,cover=3.92534494
			14:[f280<-9.53674316e-07] yes=29,no=30,missing=29,gain=6.13372803,cover=14.4040689
				29:[f5<-9.53674316e-07] yes=59,no=60,missing=59,gain=0.969797611,cover=2.94057322
					59:leaf=-0.00775365904,cover=1.37391353
					60:leaf=0.29909274,cover=1.56665969
				30:[f154<-9.53674316e-07] yes=61,no=62,missing=61,gain=9.67305946,cover=11.4634953
					61:leaf=-0.476378709,cover=6.1343708
					62:leaf=0.049449075,cover=5.32912445
booster[10]:
0:[f264<-9.53674316e-07] yes=1,no=2,missing=1,gain=2746.22852,cover=244685.75
	1:[f108<-9.53674316e-07] yes=3,no=4,missing=3,gain=1959.17969,cover=222898.672
		3:[f270<-9.53674316e-07] yes=7,no=8,missing=7,gain=1992.28491,cover=204923.234
			7:[f191<-9.53674316e-07] yes=15,no=16,missing=15,gain=1594.39661,cover=183150.25
				15:[f166<-9.53674316e-07] yes=31,no=32,missing=31,gain=1353.55579,cover=174864.328
					31:leaf=0.0152859678,cover=160173.266
					32:leaf=0.110428683,cover=14691.0693
				16:[f196<-9.53674316e-07] yes=33,no=34,missing=33,gain=186.019287,cover=8285.92578
					33:leaf=0.135832652,cover=6675.07813
					34:leaf=0.249470711,cover=1610.84729
			8:[f219<-9.53674316e-07] yes=17,no=18,missing=17,gain=1219.2616,cover=21772.9785
				17:[f184<-9.53674316e-07] yes=35,no=36,missing=35,gain=484.576782,cover=18227.6816
					35:leaf=-0.112135261,cover=16808.9219
					36:leaf=0.0704010874,cover=1418.7605
				18:[f93<-9.53674316e-07] yes=37,no=38,missing=37,gain=155.203278,cover=3545.29614
					37:leaf=0.0115880957,cover=1295.1969
					38:leaf=0.141942561,cover=2250.09937
		4:[f163<-9.53674316e-07] yes=9,no=10,missing=9,gain=440.843506,cover=17975.4414
			9:[f166<-9.53674316e-07] yes=19,no=20,missing=19,gain=245.054077,cover=16550.5391
				19:[f46<-9.53674316e-07] yes=39,no=40,missing=39,gain=217.544067,cover=14920.2188
					39:leaf=-0.13276884,cover=10686.6611
					40:leaf=-0.0523976646,cover=4233.55713
				20:[f135<-9.53674316e-07] yes=41,no=42,missing=41,gain=87.4668732,cover=1630.31934
					41:leaf=0.0313997529,cover=1518.92615
					42:leaf=-0.242864221,cover=111.393166
			10:[f214<-9.53674316e-07] yes=21,no=22,missing=21,gain=41.6153946,cover=1424.90405
				21:[f161<-9.53674316e-07] yes=43,no=44,missing=43,gain=23.0124893,cover=1301.82788
					43:leaf=0.0566379391,cover=736.079956
					44:leaf=0.137201861,cover=565.747925
				22:[f135<-9.53674316e-07] yes=45,no=46,missing=45,gain=17.9005852,cover=123.076126
					45:leaf=-0.0495052487,cover=110.30999
					46:leaf=-0.413047612,cover=12.7661362
	2:[f159<-9.53674316e-07] yes=5,no=6,missing=5,gain=276.44165,cover=21787.0742
		5:[f89<-9.53674316e-07] yes=11,no=12,missing=11,gain=349.46582,cover=20481.4395
			11:[f176<-9.53674316e-07] yes=23,no=24,missing=23,gain=216.081421,cover=17587.8711
				23:[f42<-9.53674316e-07] yes=47,no=48,missing=47,gain=201.584106,cover=17334.7383
					47:leaf=-0.113425903,cover=13917.5537
					48:leaf=-0.032095708,cover=3417.18457
				24:[f119<-9.53674316e-07] yes=49,no=50,missing=49,gain=5.70042419,cover=253.133514
					49:leaf=0.152368501,cover=184.858963
					50:leaf=0.256364316,cover=68.2745514
			12:[f90<-9.53674316e-07] yes=25,no=26,missing=25,gain=141.612305,cover=2893.56836
				25:[f155<-9.53674316e-07] yes=51,no=52,missing=51,gain=70.7775879,cover=2411.50122
					51:leaf=-0.243877336,cover=2349.85229
					52:leaf=0.0806160271,cover=61.648922
				26:[f276<-9.53674316e-07] yes=53,no=54,missing=53,gain=36.187561,cover=482.067108
					53:leaf=-0.140785933,cover=236.555344
					54:leaf=0.0233753901,cover=245.51178
		6:[f112<-9.53674316e-07] yes=13,no=14,missing=13,gain=118.641731,cover=1305.63428
			13:[f49<-9.53674316e-07] yes=27,no=28,missing=27,gain=71.3437424,cover=579.530579
				27:[f126<-9.53674316e-07] yes=55,no=56,missing=55,gain=7.82285976,cover=109.477898
					55:leaf=-0.037331555,cover=83.3873062
					56:leaf=-0.223524228,cover=26.0905895
				28:[f89<-9.53674316e-07] yes=57,no=58,missing=57,gain=25.898407,cover=470.052673
					57:leaf=0.237826273,cover=300.210999
					58:leaf=0.0905352384,cover=169.841675
			14:[f184<-9.53674316e-07] yes=29,no=30,missing=29,gain=27.1046963,cover=726.103638
				29:[f155<-9.53674316e-07] yes=59,no=60,missing=59,gain=10.5842361,cover=139.900345
					59:leaf=-0.184343845,cover=133.380219
					60:leaf=0.186594278,cover=6.52012014
				30:[f42<-9.53674316e-07] yes=61,no=62,missing=61,gain=19.4205227,cover=586.203308
					61:leaf=-0.0423700474,cover=497.448181
					62:leaf=0.109237865,cover=88.755127
booster[11]:
0:[f132<-9.53674316e-07] yes=1,no=2,missing=1,gain=1835.36353,cover=243025.859
	1:[f42<-9.53674316e-07] yes=3,no=4,missing=3,gain=1836.13672,cover=241214.172
		3:[f116<-9.53674316e-07] yes=7,no=8,missing=7,gain=1768.41199,cover=197113.063
			7:[f90<-9.53674316e-07] yes=15,no=16,missing=15,gain=1586.3125,cover=195469.141
				15:[f267<-9.53674316e-07] yes=31,no=32,missing=31,gain=1606.03967,cover=175939.438
					31:leaf=-0.0277330074,cover=174334.813
					32:leaf=0.273684561,cover=1604.62866
				16:[f148<-9.53674316e-07] yes=33,no=34,missing=33,gain=296.743652,cover=19529.7051
					33:leaf=0.0414593853,cover=13853.1758
					34:leaf=0.122901022,cover=5676.52881
			8:[f188<-9.53674316e-07] yes=17,no=18,missing=17,gain=91.5678711,cover=1643.91992
				17:[f163<-9.53674316e-07] yes=35,no=36,missing=35,gain=17.9866638,cover=164.023697
					35:leaf=0.137543947,cover=125.907761
					36:leaf=-0.0956298113,cover=38.1159325
				18:[f163<-9.53674316e-07] yes=37,no=38,missing=37,gain=44.7751465,cover=1479.89624
					37:leaf=0.340937018,cover=1275.17798
					38:leaf=0.18821533,cover=204.718338
		4:[f3<-9.53674316e-07] yes=9,no=10,missing=9,gain=405.735107,cover=44101.1016
			9:[f5<-9.53674316e-07] yes=19,no=20,missing=19,gain=296.595337,cover=26387.7031
				19:[f275<-9.53674316e-07] yes=39,no=40,missing=39,gain=151.245239,cover=8966.87109
					39:leaf=0.086940296,cover=8208.16309
					40:leaf=-0.0530017838,cover=758.707581
				20:[f264<-9.53674316e-07] yes=41,no=42,missing=41,gain=217.430908,cover=17420.834
					41:leaf=0.018960854,cover=15723.2314
					42:leaf=-0.0940217301,cover=1697.60168
			10:[f117<-9.53674316e-07] yes=21,no=22,missing=21,gain=210.90271,cover=17713.3965
				21:[f115<-9.53674316e-07] yes=43,no=44,missing=43,gain=166.957886,cover=16983.7207
					43:leaf=0.0997607484,cover=16750.6777
					44:leaf=-0.155464023,cover=233.043884
				22:[f110<-9.53674316e-07] yes=45,no=46,missing=45,gain=72.6956177,cover=729.676392
					45:leaf=-0.126188129,cover=531.315063
					46:leaf=0.0862757117,cover=198.361359
	2:[f126<-9.53674316e-07] yes=5,no=6,missing=5,gain=23.052124,cover=1811.6897
		5:[f173<-9.53674316e-07] yes=11,no=12,missing=11,gain=13.085083,cover=1030.65295
			11:[f130<-9.53674316e-07] yes=23,no=24,missing=23,gain=11.0693359,cover=951.309326
				23:[f165<-9.53674316e-07] yes=47,no=48,missing=47,gain=9.04528809,cover=772.569946
					47:leaf=0.374355704,cover=627.136963
					48:leaf=0.28528735,cover=145.432999
				24:[f152<-9.53674316e-07] yes=49,no=50,missing=49,gain=3.2893219,cover=178.739334
					49:leaf=0.292531699,cover=141.491562
					50:leaf=0.181928933,cover=37.2477837
			12:[f20<-9.53674316e-07] yes=25,no=26,missing=25,gain=6.39675522,cover=79.343605
				25:[f38<-9.53674316e-07] yes=51,no=52,missing=51,gain=9.40057468,cover=27.3484287
					51:leaf=0.263531029,cover=13.0149879
					52:leaf=-0.0778920129,cover=14.3334408
				26:[f278<-9.53674316e-07] yes=53,no=54,missing=53,gain=2.32832718,cover=51.995182
					53:leaf=0.280942798,cover=50.8487511
					54:leaf=-0.088800244,cover=1.1464293
		6:[f125<-9.53674316e-07] yes=13,no=14,missing=13,gain=28.2524414,cover=781.036743
			13:[f47<-9.53674316e-07] yes=27,no=28,missing=27,gain=4.0594101,cover=7.44887733
				27:[f91<-9.53674316e-07] yes=55,no=56,missing=55,gain=3.07234025,cover=2.14978004
					55:leaf=-0.219851181,cover=1.1126039
					56:leaf=0.297948778,cover=1.03717613
				28:[f191<-9.53674316e-07] yes=57,no=58,missing=57,gain=1.80500889,cover=5.29909754
					57:leaf=-0.485650688,cover=4.23959494
					58:leaf=-0.0279401857,cover=1.05950272
			14:[f112<-9.53674316e-07] yes=29,no=30,missing=29,gain=8.565979,cover=773.58783
				29:[f198<-9.53674316e-07] yes=59,no=60,missing=59,gain=7.22198486,cover=459.656464
					59:leaf=0.217272103,cover=346.335876
					60:leaf=0.307972461,cover=113.32058
				30:[f7<-9.53674316e-07] yes=61,no=62,missing=61,gain=4.79077148,cover=313.931396
					61:leaf=0.317322373,cover=293.76828
					62:leaf=0.15420875,cover=20.1630955
booster[12]:
0:[f117<-9.53674316e-07] yes=1,no=2,missing=1,gain=1562.64099,cover=241398.172
	1:[f115<-9.53674316e-07] yes=3,no=4,missing=3,gain=2142.51929,cover=234203.172
		3:[f3<-9.53674316e-07] yes=7,no=8,missing=7,gain=1749.0387,cover=231755.859
			7:[f280<-9.53674316e-07] yes=15,no=16,missing=15,gain=1142.43164,cover=147600.875
				15:[f125<-9.53674316e-07] yes=31,no=32,missing=31,gain=610.217407,cover=31320.6934
					31:leaf=0.00530356355,cover=18876.1328
					32:leaf=0.0908740461,cover=12444.5605
				16:[f193<-9.53674316e-07] yes=33,no=34,missing=33,gain=1062.63379,cover=116280.18
					33:leaf=-0.028032545,cover=115194.008
					34:leaf=0.269959927,cover=1086.17114
			8:[f265<-9.53674316e-07] yes=17,no=18,missing=17,gain=968.485107,cover=84154.9766
				17:[f114<-9.53674316e-07] yes=35,no=36,missing=35,gain=567.487915,cover=73190.1875
					35:leaf=0.0115194973,cover=48813.9883
					36:leaf=0.0675684214,cover=24376.1973
				18:[f25<-9.53674316e-07] yes=37,no=38,missing=37,gain=130.165283,cover=10964.7939
					37:leaf=0.0995905474,cover=6681.45508
					38:leaf=0.16662401,cover=4283.33936
		4:[f3<-9.53674316e-07] yes=9,no=10,missing=9,gain=128.075928,cover=2447.3208
			9:[f110<-9.53674316e-07] yes=19,no=20,missing=19,gain=51.6607666,cover=1077.49561
				19:[f163<-9.53674316e-07] yes=39,no=40,missing=39,gain=11.8662109,cover=938.727661
					39:leaf=-0.367067993,cover=880.216003
					40:leaf=-0.514381349,cover=58.5116844
				20:[f9<-9.53674316e-07] yes=41,no=42,missing=41,gain=11.5984001,cover=138.767914
					41:leaf=-0.0926320404,cover=71.4962616
					42:leaf=-0.26753363,cover=67.2716522
			10:[f221<-9.53674316e-07] yes=21,no=22,missing=21,gain=31.2536011,cover=1369.82532
				21:[f9<-9.53674316e-07] yes=43,no=44,missing=43,gain=15.6436157,cover=1010.92255
					43:leaf=-0.207383111,cover=587.880493
					44:leaf=-0.284482479,cover=423.042053
				22:[f113<-9.53674316e-07] yes=45,no=46,missing=45,gain=18.0737228,cover=358.902802
					45:leaf=-0.186796904,cover=228.66893
					46:leaf=-0.0464446135,cover=130.233871
	2:[f110<-9.53674316e-07] yes=5,no=6,missing=5,gain=347.714355,cover=7194.99658
		5:[f157<-9.53674316e-07] yes=11,no=12,missing=11,gain=94.8331299,cover=5395.94629
			11:[f234<-9.53674316e-07] yes=23,no=24,missing=23,gain=103.819214,cover=4846.0376
				23:[f115<-9.53674316e-07] yes=47,no=48,missing=47,gain=75.4206543,cover=4407.86914
					47:leaf=-0.166106969,cover=4186.66846
					48:leaf=-0.34586978,cover=221.200668
				24:[f45<-9.53674316e-07] yes=49,no=50,missing=49,gain=20.4589596,cover=438.168427
					49:leaf=-0.101480909,cover=174.347549
					50:leaf=0.0306497626,cover=263.820862
			12:[f176<-9.53674316e-07] yes=25,no=26,missing=25,gain=8.34790039,cover=549.909058
				25:[f234<-9.53674316e-07] yes=51,no=52,missing=51,gain=3.5748291,cover=533.283508
					51:leaf=-0.310280591,cover=457.443787
					52:leaf=-0.231227994,cover=75.8397446
				26:[f187<-9.53674316e-07] yes=53,no=54,missing=53,gain=7.27668238,cover=16.6254959
					53:leaf=-0.225826696,cover=10.2788076
					54:leaf=0.159532547,cover=6.34668922
		6:[f115<-9.53674316e-07] yes=13,no=14,missing=13,gain=303.121918,cover=1799.04993
			13:[f176<-9.53674316e-07] yes=27,no=28,missing=27,gain=10.9133606,cover=467.702301
				27:[f0<-9.53674316e-07] yes=55,no=56,missing=55,gain=6.43200684,cover=448.955505
					55:leaf=-0.25084281,cover=408.062897
					56:leaf=-0.12146882,cover=40.8925934
				28:[f157<-9.53674316e-07] yes=57,no=58,missing=57,gain=3.86524987,cover=18.7468128
					57:leaf=0.0699641854,cover=14.5201483
					58:leaf=-0.228328869,cover=4.22666407
			14:[f265<-9.53674316e-07] yes=29,no=30,missing=29,gain=63.354351,cover=1331.34753
				29:[f176<-9.53674316e-07] yes=59,no=60,missing=59,gain=30.1256256,cover=1089.2522
					59:leaf=0.00928111281,cover=1045.81531
					60:leaf=0.261498839,cover=43.4368973
				30:[f135<-9.53674316e-07] yes=61,no=62,missing=61,gain=18.7391281,cover=242.095352
					61:leaf=0.215210006,cover=220.220261
					62:leaf=-0.0730029792,cover=21.875082
booster[13]:
0:[f153<-9.53674316e-07] yes=1,no=2,missing=1,gain=1531.1189,cover=240267.563
	1:[f13<-9.53674316e-07] yes=3,no=4,missing=3,gain=1426.32642,cover=227561.859
		3:[f245<-9.53674316e-07] yes=7,no=8,missing=7,gain=1335.96729,cover=215658.516
			7:[f142<-9.53674316e-07] yes=15,no=16,missing=15,gain=1218.27039,cover=212001.281
				15:[f8<-9.53674316e-07] yes=31,no=32,missing=31,gain=1173.90234,cover=202525.547
					31:leaf=0.0144583425,cover=190017.734
					32:leaf=-0.0804213285,cover=12507.8145
				16:[f185<-9.53674316e-07] yes=33,no=34,missing=33,gain=138.954102,cover=9475.73535
					33:leaf=-0.10771925,cover=9202.13379
					34:leaf=0.108935654,cover=273.601654
			8:[f159<-9.53674316e-07] yes=17,no=18,missing=17,gain=283.449707,cover=3657.24634
				17:[f247<-9.53674316e-07] yes=35,no=36,missing=35,gain=69.7894287,cover=3244.84253
					35:leaf=-0.218809038,cover=3089.30566
					36:leaf=-0.012774107,cover=155.536957
				18:[f143<-9.53674316e-07] yes=37,no=38,missing=37,gain=14.2055292,cover=412.403656
					37:leaf=0.0743125677,cover=368.183929
					38:leaf=-0.104043573,cover=44.2197113
		4:[f188<-9.53674316e-07] yes=9,no=10,missing=9,gain=213.212769,cover=11903.335
			9:[f112<-9.53674316e-07] yes=19,no=20,missing=19,gain=174.454224,cover=10883.8066
				19:[f43<-9.53674316e-07] yes=39,no=40,missing=39,gain=52.0078125,cover=5054.30078
					39:leaf=0.248092517,cover=345.531372
					40:leaf=0.127435237,cover=4708.76953
				20:[f203<-9.53674316e-07] yes=41,no=42,missing=41,gain=202.339355,cover=5829.50586
					41:leaf=0.0110097043,cover=3323.01172
					42:leaf=0.123896427,cover=2506.49414
			10:[f184<-9.53674316e-07] yes=21,no=22,missing=21,gain=27.2249756,cover=1019.52875
				21:[f160<-9.53674316e-07] yes=43,no=44,missing=43,gain=13.2718353,cover=383.285858
					43:leaf=0.191725075,cover=349.326447
					44:leaf=-0.00456749182,cover=33.9593964
				22:[f142<-9.53674316e-07] yes=45,no=46,missing=45,gain=10.7648926,cover=636.242859
					45:leaf=0.28383857,cover=615.273804
					46:leaf=0.0618611611,cover=20.9690571
	2:[f234<-9.53674316e-07] yes=5,no=6,missing=5,gain=253.322144,cover=12705.709
		5:[f221<-9.53674316e-07] yes=11,no=12,missing=11,gain=132.243896,cover=11693.2764
			11:[f165<-9.53674316e-07] yes=23,no=24,missing=23,gain=84.6673584,cover=10038.3428
				23:[f3<-9.53674316e-07] yes=47,no=48,missing=47,gain=80.6578369,cover=9363.03906
					47:leaf=-0.158698112,cover=5180.48145
					48:leaf=-0.102627769,cover=4182.55762
				24:[f245<-9.53674316e-07] yes=49,no=50,missing=49,gain=17.2600975,cover=675.303589
					49:leaf=-0.0140767321,cover=650.54187
					50:leaf=-0.264488339,cover=24.7616615
			12:[f157<-9.53674316e-07] yes=25,no=26,missing=25,gain=74.5031433,cover=1654.93359
				25:[f9<-9.53674316e-07] yes=51,no=52,missing=51,gain=38.6587639,cover=1490.09888
					51:leaf=0.0236633718,cover=936.737061
					52:leaf=-0.0762717575,cover=553.361877
				26:[f74<-9.53674316e-07] yes=53,no=54,missing=53,gain=5.22586823,cover=164.834686
					53:leaf=-0.243993804,cover=147.08223
					54:leaf=-0.0670963898,cover=17.752449
		6:[f115<-9.53674316e-07] yes=13,no=14,missing=13,gain=41.8415222,cover=1012.43268
			13:[f157<-9.53674316e-07] yes=27,no=28,missing=27,gain=35.5357399,cover=898.914978
				27:[f105<-9.53674316e-07] yes=55,no=56,missing=55,gain=38.9602737,cover=804.214661
					55:leaf=-0.00914693344,cover=264.182068
					56:leaf=0.131368145,cover=540.032532
				28:[f175<-9.53674316e-07] yes=57,no=58,missing=57,gain=5.55901814,cover=94.7003479
					57:leaf=-0.129088417,cover=87.6206741
					58:leaf=0.133844376,cover=7.07967615
			14:[f205<-9.53674316e-07] yes=29,no=30,missing=29,gain=6.87778473,cover=113.51767
				29:[f188<-9.53674316e-07] yes=59,no=60,missing=59,gain=4.80183411,cover=100.643265
					59:leaf=-0.164439738,cover=98.4981842
					60:leaf=0.222168699,cover=2.14508009
				30:[f2<-9.53674316e-07] yes=61,no=62,missing=61,gain=4.46193647,cover=12.8744059
					61:leaf=0.204452336,cover=7.90292835
					62:leaf=-0.132866517,cover=4.97147799
booster[14]:
0:[f40<-9.53674316e-07] yes=1,no=2,missing=1,gain=1449.52112,cover=238928.906
	1:[f173<-9.53674316e-07] yes=3,no=4,missing=3,gain=1312.79956,cover=232682.125
		3:[f219<-9.53674316e-07] yes=7,no=8,missing=7,gain=1220.62427,cover=227308.781
			7:[f196<-9.53674316e-07] yes=15,no=16,missing=15,gain=1230.6626,cover=202499.125
				15:[f155<-9.53674316e-07] yes=31,no=32,missing=31,gain=1037.6604,cover=182765.219
					31:leaf=-0.0251081605,cover=181393.063
					32:leaf=0.236666262,cover=1372.15991
				16:[f188<-9.53674316e-07] yes=33,no=34,missing=33,gain=339.767578,cover=19733.9102
					33:leaf=0.0455449894,cover=18500.5938
					34:leaf=0.208116665,cover=1233.31726
			8:[f99<-9.53674316e-07] yes=17,no=18,missing=17,gain=236.947754,cover=24809.6621
				17:[f45<-9.53674316e-07] yes=35,no=36,missing=35,gain=218.366577,cover=18318.2559
					35:leaf=0.118989483,cover=6075.59326
					36:leaf=0.0494146012,cover=12242.6621
				18:[f157<-9.53674316e-07] yes=37,no=38,missing=37,gain=68.0865479,cover=6491.40576
					37:leaf=0.00919903722,cover=6413.46387
					38:leaf=-0.27112174,cover=77.9419556
		4:[f280<-9.53674316e-07] yes=9,no=10,missing=9,gain=42.7203369,cover=5373.33203
			9:[f43<-9.53674316e-07] yes=19,no=20,missing=19,gain=5.75570679,cover=776.594604
				19:[f198<-9.53674316e-07] yes=39,no=40,missing=39,gain=2.44997263,cover=2.71092319
					39:leaf=-0.407474697,cover=1.0090878
					40:leaf=0.0547879748,cover=1.70183539
				20:[f8<-9.53674316e-07] yes=41,no=42,missing=41,gain=5.9750061,cover=773.883667
					41:leaf=0.21772705,cover=699.56488
					42:leaf=0.125267059,cover=74.3187943
			10:[f138<-9.53674316e-07] yes=21,no=22,missing=21,gain=31.4842529,cover=4596.7373
				21:[f207<-9.53674316e-07] yes=43,no=44,missing=43,gain=27.7719116,cover=4537.41943
					43:leaf=0.136318579,cover=4495.24463
					44:leaf=-0.10630887,cover=42.1747398
				22:[f196<-9.53674316e-07] yes=45,no=46,missing=45,gain=5.68554974,cover=59.3179359
					45:leaf=-0.131046921,cover=47.3522377
					46:leaf=0.0942090452,cover=11.9656954
	2:[f280<-9.53674316e-07] yes=5,no=6,missing=5,gain=113.89563,cover=6246.78516
		5:[f165<-9.53674316e-07] yes=11,no=12,missing=11,gain=75.7419434,cover=1178.63757
			11:[f45<-9.53674316e-07] yes=23,no=24,missing=23,gain=37.1473999,cover=296.544861
				23:[f3<-9.53674316e-07] yes=47,no=48,missing=47,gain=4.73036909,cover=33.3522491
					47:leaf=0.0996104553,cover=29.4733524
					48:leaf=-0.219741374,cover=3.87889624
				24:[f2<-9.53674316e-07] yes=49,no=50,missing=49,gain=8.24313354,cover=263.192627
					49:leaf=0.413120955,cover=237.218384
					50:leaf=0.220679477,cover=25.9742451
			12:[f43<-9.53674316e-07] yes=25,no=26,missing=25,gain=52.0780029,cover=882.092712
				25:[f112<-9.53674316e-07] yes=51,no=52,missing=51,gain=5.39990044,cover=40.9946365
					51:leaf=-0.187775567,cover=35.5822983
					52:leaf=0.116979904,cover=5.41233778
				26:[f248<-9.53674316e-07] yes=53,no=54,missing=53,gain=18.0041504,cover=841.098083
					53:leaf=0.181633025,cover=745.799438
					54:leaf=0.321112186,cover=95.2986374
		6:[f248<-9.53674316e-07] yes=13,no=14,missing=13,gain=72.223877,cover=5068.14746
			13:[f42<-9.53674316e-07] yes=27,no=28,missing=27,gain=64.8806152,cover=4685.22852
				27:[f3<-9.53674316e-07] yes=55,no=56,missing=55,gain=52.0029602,cover=3757.2793
					55:leaf=0.0637830868,cover=2130.27905
					56:leaf=0.135061085,cover=1627.00049
				28:[f196<-9.53674316e-07] yes=57,no=58,missing=57,gain=7.39129639,cover=927.948914
					57:leaf=0.170286372,cover=761.850464
					58:leaf=0.241685852,cover=166.098495
			14:[f247<-9.53674316e-07] yes=29,no=30,missing=29,gain=13.3267212,cover=382.919006
				29:[f47<-9.53674316e-07] yes=59,no=60,missing=59,gain=4.31721687,cover=98.6478424
					59:leaf=0.246110886,cover=29.3217449
					60:leaf=0.106845833,cover=69.3260956
				30:[f89<-9.53674316e-07] yes=61,no=62,missing=61,gain=6.43157959,cover=284.271179
					61:leaf=0.302700341,cover=232.682343
					62:leaf=0.178941488,cover=51.588829
booster[15]:
0:[f278<-9.53674316e-07] yes=1,no=2,missing=1,gain=1228.42175,cover=237435.547
	1:[f46<-9.53674316e-07] yes=3,no=4,missing=3,gain=1037.02637,cover=229792.125
		3:[f158<-9.53674316e-07] yes=7,no=8,missing=7,gain=1011.047,cover=171771.641
			7:[f267<-9.53674316e-07] yes=15,no=16,missing=15,gain=893.815552,cover=162998.484
				15:[f42<-9.53674316e-07] yes=31,no=32,missing=31,gain=884.391846,cover=161323.625
					31:leaf=-0.0254821219,cover=132313.625
					32:leaf=0.0323555283,cover=29010.0059
				16:[f277<-9.53674316e-07] yes=33,no=34,missing=33,gain=63.458374,cover=1674.85767
					33:leaf=0.157578513,cover=1011.54224
					34:leaf=0.277339041,cover=663.315369
			8:[f276<-9.53674316e-07] yes=17,no=18,missing=17,gain=269.35614,cover=8773.15527
				17:[f160<-9.53674316e-07] yes=35,no=36,missing=35,gain=219.735428,cover=6141.51855
					35:leaf=0.0725711584,cover=5727.02197
					36:leaf=-0.153387964,cover=414.496552
				18:[f39<-9.53674316e-07] yes=37,no=38,missing=37,gain=49.2740479,cover=2631.63672
					37:leaf=0.211266086,cover=1376.42114
					38:leaf=0.128835902,cover=1255.2157
		4:[f134<-9.53674316e-07] yes=9,no=10,missing=9,gain=471.002197,cover=58020.4727
			9:[f3<-9.53674316e-07] yes=19,no=20,missing=19,gain=332.760834,cover=47296.5195
				19:[f114<-9.53674316e-07] yes=39,no=40,missing=39,gain=272.804443,cover=29675.6641
					39:leaf=-0.0109211113,cover=21612.125
					40:leaf=0.0537356101,cover=8063.53906
				20:[f112<-9.53674316e-07] yes=41,no=42,missing=41,gain=165.775696,cover=17620.8535
					41:leaf=0.0765875876,cover=12785.5664
					42:leaf=0.0113741606,cover=4835.2876
			10:[f135<-9.53674316e-07] yes=21,no=22,missing=21,gain=218.380981,cover=10723.9551
				21:[f112<-9.53674316e-07] yes=43,no=44,missing=43,gain=169.885742,cover=10118.1689
					43:leaf=0.142712966,cover=5368.56445
					44:leaf=0.0648000091,cover=4749.604
				22:[f202<-9.53674316e-07] yes=45,no=46,missing=45,gain=28.0468559,cover=605.786865
					45:leaf=-0.0643641204,cover=576.833252
					46:leaf=-0.36245662,cover=28.9536095
	2:[f85<-9.53674316e-07] yes=5,no=6,missing=5,gain=667.645386,cover=7643.4248
		5:[f268<-9.53674316e-07] yes=11,no=12,missing=11,gain=252.938477,cover=1730.0376
			11:[f264<-9.53674316e-07] yes=23,no=24,missing=23,gain=16.6827393,cover=1005.69879
				23:[f21<-9.53674316e-07] yes=47,no=48,missing=47,gain=6.14663696,cover=191.525116
					47:leaf=-0.215715006,cover=113.173294
					48:leaf=-0.331048876,cover=78.3518219
				24:[f185<-9.53674316e-07] yes=49,no=50,missing=49,gain=14.1487122,cover=814.173645
					49:leaf=-0.171634644,cover=792.460022
					50:leaf=0.0710584596,cover=21.7136517
			12:[f264<-9.53674316e-07] yes=25,no=26,missing=25,gain=7.47570801,cover=724.338806
				25:[f115<-9.53674316e-07] yes=51,no=52,missing=51,gain=7.35070801,cover=679.604736
					51:leaf=-0.448136181,cover=470.421326
					52:leaf=-0.37202239,cover=209.183426
				26:[f112<-9.53674316e-07] yes=53,no=54,missing=53,gain=8.24261093,cover=44.7340355
					53:leaf=-0.0776499733,cover=13.1647539
					54:leaf=-0.366071224,cover=31.5692825
		6:[f108<-9.53674316e-07] yes=13,no=14,missing=13,gain=59.5477905,cover=5913.38721
			13:[f163<-9.53674316e-07] yes=27,no=28,missing=27,gain=49.0196991,cover=5343.76074
				27:[f264<-9.53674316e-07] yes=55,no=56,missing=55,gain=43.5763245,cover=5092.69238
					55:leaf=-0.117803909,cover=1154.38855
					56:leaf=-0.0515094958,cover=3938.30371
				28:[f112<-9.53674316e-07] yes=57,no=58,missing=57,gain=12.4725046,cover=251.068283
					57:leaf=0.0979060233,cover=211.526672
					58:leaf=-0.0840539932,cover=39.5416031
			14:[f170<-9.53674316e-07] yes=29,no=30,missing=29,gain=8.41862488,cover=569.626587
				29:[f176<-9.53674316e-07] yes=59,no=60,missing=59,gain=8.11767578,cover=563.913269
					59:leaf=-0.171088815,cover=552.624878
					60:leaf=0.0800277665,cover=11.2883978
				30:[f7<-9.53674316e-07] yes=61,no=62,missing=61,gain=5.48869038,cover=5.71333504
					61:leaf=0.367932647,cover=3.61292982
					62:leaf=-0.16240336,cover=2.10040498
booster[16]:
0:[f207<-9.53674316e-07] yes=1,no=2,missing=1,gain=1044.27173,cover=236250.172
	1:[f264<-9.53674316e-07] yes=3,no=4,missing=3,gain=1017.78845,cover=233690.422
		3:[f129<-9.53674316e-07] yes=7,no=8,missing=7,gain=949.612183,cover=212994.953
			7:[f110<-9.53674316e-07] yes=15,no=16,missing=15,gain=862.9245,cover=203587.547
				15:[f115<-9.53674316e-07] yes=31,no=32,missing=31,gain=867.687439,cover=198009.172
					31:leaf=0.00998540875,cover=196450.734
					32:leaf=-0.214679942,cover=1558.43713
				16:[f115<-9.53674316e-07] yes=33,no=34,missing=33,gain=348.854614,cover=5578.37158
					33:leaf=-0.154381827,cover=4200.19629
					34:leaf=0.0195442345,cover=1378.17566
			8:[f268<-9.53674316e-07] yes=17,no=18,missing=17,gain=99.2403564,cover=9407.41016
				17:[f134<-9.53674316e-07] yes=35,no=36,missing=35,gain=67.965332,cover=8925.8916
					35:leaf=0.0830681324,cover=7342.396
					36:leaf=0.151627555,cover=1583.49585
				18:[f278<-9.53674316e-07] yes=37,no=38,missing=37,gain=37.2503052,cover=481.518677
					37:leaf=0.247269049,cover=471.625671
					38:leaf=-0.318450361,cover=9.89301395
		4:[f165<-9.53674316e-07] yes=9,no=10,missing=9,gain=146.93219,cover=20695.4668
			9:[f89<-9.53674316e-07] yes=19,no=20,missing=19,gain=158.522766,cover=19197.5137
				19:[f163<-9.53674316e-07] yes=39,no=40,missing=39,gain=115.541626,cover=16067.3994
					39:leaf=-0.060279306,cover=15511.752
					40:leaf=0.0788504556,cover=555.647522
				20:[f134<-9.53674316e-07] yes=41,no=42,missing=41,gain=108.712097,cover=3130.1145
					41:leaf=-0.163070172,cover=2291.60938
					42:leaf=-0.0367790572,cover=838.505127
			10:[f248<-9.53674316e-07] yes=21,no=22,missing=21,gain=16.8949661,cover=1497.95264
				21:[f42<-9.53674316e-07] yes=43,no=44,missing=43,gain=17.3947144,cover=1392.98669
					43:leaf=0.00538526895,cover=1139.31677
					44:leaf=0.092116572,cover=253.669876
				22:[f126<-9.53674316e-07] yes=45,no=46,missing=45,gain=8.99161911,cover=104.965889
					45:leaf=0.192358658,cover=81.332428
					46:leaf=-0.0168948751,cover=23.633461
	2:[f103<-9.53674316e-07] yes=5,no=6,missing=5,gain=134.401367,cover=2559.75366
		5:[f1<-9.53674316e-07] yes=11,no=12,missing=11,gain=62.9017334,cover=2096.85278
			11:[f202<-9.53674316e-07] yes=23,no=24,missing=23,gain=28.3107452,cover=785.817383
				23:[f162<-9.53674316e-07] yes=47,no=48,missing=47,gain=16.1040955,cover=739.208191
					47:leaf=-0.148135856,cover=713.342346
					48:leaf=0.0900447443,cover=25.8658276
				24:[f91<-9.53674316e-07] yes=49,no=50,missing=49,gain=2.19792938,cover=46.6092224
					49:leaf=-0.253126889,cover=15.1193304
					50:leaf=-0.430469811,cover=31.489893
			12:[f221<-9.53674316e-07] yes=25,no=26,missing=25,gain=38.1981201,cover=1311.03528
				25:[f162<-9.53674316e-07] yes=51,no=52,missing=51,gain=22.4056396,cover=1026.15173
					51:leaf=-0.294385731,cover=1012.26794
					52:leaf=0.083991468,cover=13.8838196
				26:[f149<-9.53674316e-07] yes=53,no=54,missing=53,gain=17.9817429,cover=284.883545
					53:leaf=-0.252664447,cover=119.062256
					54:leaf=-0.0991580188,cover=165.821274
		6:[f221<-9.53674316e-07] yes=13,no=14,missing=13,gain=21.1641617,cover=462.900879
			13:[f202<-9.53674316e-07] yes=27,no=28,missing=27,gain=10.4823208,cover=308.394623
				27:[f163<-9.53674316e-07] yes=55,no=56,missing=55,gain=8.66444683,cover=271.806488
					55:leaf=-0.0971990228,cover=207.892349
					56:leaf=0.0286492277,cover=63.9141464
				28:[f112<-9.53674316e-07] yes=57,no=58,missing=57,gain=5.27768517,cover=36.5881386
					57:leaf=-0.143572643,cover=23.75947
					58:leaf=-0.387937576,cover=12.8286686
			14:[f138<-9.53674316e-07] yes=29,no=30,missing=29,gain=14.2119598,cover=154.506241
				29:[f7<-9.53674316e-07] yes=59,no=60,missing=59,gain=12.2340708,cover=116.610611
					59:leaf=-0.0601162426,cover=88.3702011
					60:leaf=0.163439289,cover=28.2404099
				30:[f117<-9.53674316e-07] yes=61,no=62,missing=61,gain=3.58111191,cover=37.8956299
					61:leaf=0.268903524,cover=25.0086937
					62:leaf=0.0686616972,cover=12.8869371
booster[17]:
0:[f190<-9.53674316e-07] yes=1,no=2,missing=1,gain=919.443726,cover=235146.703
	1:[f98<-9.53674316e-07] yes=3,no=4,missing=3,gain=886.873779,cover=227020.984
		3:[f92<-9.53674316e-07] yes=7,no=8,missing=7,gain=914.507507,cover=187337.828
			7:[f108<-9.53674316e-07] yes=15,no=16,missing=15,gain=928.687805,cover=178762.703
				15:[f49<-9.53674316e-07] yes=31,no=32,missing=31,gain=913.211182,cover=164240.703
					31:leaf=-0.000927659334,cover=101766.773
					32:leaf=0.045150239,cover=62473.9297
				16:[f163<-9.53674316e-07] yes=33,no=34,missing=33,gain=163.729431,cover=14522.0039
					33:leaf=-0.0712207705,cover=13519.4678
					34:leaf=0.0543889105,cover=1002.53583
			8:[f247<-9.53674316e-07] yes=17,no=18,missing=17,gain=207.686646,cover=8575.11621
				17:[f20<-9.53674316e-07] yes=35,no=36,missing=35,gain=159.21106,cover=7507.76563
					35:leaf=-0.146618843,cover=4187.40088
					36:leaf=-0.0586326681,cover=3320.36475
				18:[f122<-9.53674316e-07] yes=37,no=38,missing=37,gain=41.3391113,cover=1067.35071
					37:leaf=0.0724877194,cover=745.013123
					38:leaf=-0.0559600927,cover=322.337585
		4:[f162<-9.53674316e-07] yes=9,no=10,missing=9,gain=567.80481,cover=39683.1523
			9:[f50<-9.53674316e-07] yes=19,no=20,missing=19,gain=449.492798,cover=38792.9922
				19:[f118<-9.53674316e-07] yes=39,no=40,missing=39,gain=273.633301,cover=33593.7344
					39:leaf=-0.05299877,cover=24515.0156
					40:leaf=0.00796874333,cover=9078.71777
				20:[f175<-9.53674316e-07] yes=41,no=42,missing=41,gain=65.2360229,cover=5199.2583
					41:leaf=-0.137178764,cover=5045.23584
					42:leaf=0.0606888495,cover=154.022308
			10:[f163<-9.53674316e-07] yes=21,no=22,missing=21,gain=56.4751892,cover=890.161072
				21:[f52<-9.53674316e-07] yes=43,no=44,missing=43,gain=28.5200195,cover=170.410324
					43:leaf=0.593877971,cover=33.9042969
					44:leaf=0.283180952,cover=136.506027
				22:[f89<-9.53674316e-07] yes=45,no=46,missing=45,gain=27.9379883,cover=719.750793
					45:leaf=0.202954412,cover=439.754456
					46:leaf=0.0813224912,cover=279.996307
	2:[f153<-9.53674316e-07] yes=5,no=6,missing=5,gain=110.722961,cover=8125.72314
		5:[f276<-9.53674316e-07] yes=11,no=12,missing=11,gain=89.8849487,cover=7440.90625
			11:[f126<-9.53674316e-07] yes=23,no=24,missing=23,gain=52.5267944,cover=5587.97656
				23:[f9<-9.53674316e-07] yes=47,no=48,missing=47,gain=41.0014038,cover=4093.22046
					47:leaf=0.125325888,cover=3144.30005
					48:leaf=0.0540930517,cover=948.920349
				24:[f119<-9.53674316e-07] yes=49,no=50,missing=49,gain=186.274185,cover=1494.75598
					49:leaf=-0.30369848,cover=126.562065
					50:leaf=0.0753579289,cover=1368.19397
			12:[f126<-9.53674316e-07] yes=25,no=26,missing=25,gain=19.3359375,cover=1852.92993
				25:[f24<-9.53674316e-07] yes=51,no=52,missing=51,gain=18.2869873,cover=1259.5824
					51:leaf=0.176335484,cover=1134.49902
					52:leaf=0.298057556,cover=125.08342
				26:[f119<-9.53674316e-07] yes=53,no=54,missing=53,gain=68.0513916,cover=593.347473
					53:leaf=-0.270263314,cover=36.3451576
					54:leaf=0.14854978,cover=557.002319
		6:[f219<-9.53674316e-07] yes=13,no=14,missing=13,gain=23.8875542,cover=684.817017
			13:[f74<-9.53674316e-07] yes=27,no=28,missing=27,gain=11.9082594,cover=565.084412
				27:[f116<-9.53674316e-07] yes=55,no=56,missing=55,gain=11.9771671,cover=503.075073
					55:leaf=-0.0624540113,cover=496.589172
					56:leaf=0.320431143,cover=6.48590183
				28:[f109<-9.53674316e-07] yes=57,no=58,missing=57,gain=9.14354515,cover=62.0093002
					57:leaf=0.139780164,cover=49.2730637
					58:leaf=-0.137500256,cover=12.7362375
			14:[f110<-9.53674316e-07] yes=29,no=30,missing=29,gain=9.1970005,cover=119.732635
				29:[f74<-9.53674316e-07] yes=59,no=60,missing=59,gain=7.96891785,cover=107.731819
					59:leaf=0.097763598,cover=92.3580704
					60:leaf=0.327431142,cover=15.3737507
				30:[f205<-9.53674316e-07] yes=61,no=62,missing=61,gain=3.84226441,cover=12.0008106
					61:leaf=0.00265462487,cover=7.55293608
					62:leaf=-0.327541262,cover=4.44787455
booster[18]:
0:[f157<-9.53674316e-07] yes=1,no=2,missing=1,gain=918.805359,cover=233834.891
	1:[f132<-9.53674316e-07] yes=3,no=4,missing=3,gain=848.915649,cover=231984.938
		3:[f233<-9.53674316e-07] yes=7,no=8,missing=7,gain=758.495972,cover=230425.844
			7:[f175<-9.53674316e-07] yes=15,no=16,missing=15,gain=757.252197,cover=224929.844
				15:[f112<-9.53674316e-07] yes=31,no=32,missing=31,gain=860.273254,cover=208589.094
					31:leaf=0.00453809788,cover=150998.375
					32:leaf=-0.0385562107,cover=57590.7266
				16:[f173<-9.53674316e-07] yes=33,no=34,missing=33,gain=211.627197,cover=16340.7539
					33:leaf=0.037478067,cover=11479.4258
					34:leaf=0.112158902,cover=4861.32861
			8:[f115<-9.53674316e-07] yes=17,no=18,missing=17,gain=113.990051,cover=5496.00049
				17:[f117<-9.53674316e-07] yes=35,no=36,missing=35,gain=73.3930664,cover=5134.55859
					35:leaf=0.132395908,cover=4719.84277
					36:leaf=0.000763323274,cover=414.716125
				18:[f13<-9.53674316e-07] yes=37,no=38,missing=37,gain=16.2936058,cover=361.441864
					37:leaf=-0.0695856139,cover=337.348267
					38:leaf=0.181192294,cover=24.0935917
		4:[f279<-9.53674316e-07] yes=9,no=10,missing=9,gain=18.1548462,cover=1559.08643
			9:[f126<-9.53674316e-07] yes=19,no=20,missing=19,gain=9.19598389,cover=1217.55969
				19:[f90<-9.53674316e-07] yes=39,no=40,missing=39,gain=11.7003784,cover=744.119507
					39:leaf=0.237523049,cover=551.537231
					40:leaf=0.325950593,cover=192.58226
				20:[f125<-9.53674316e-07] yes=41,no=42,missing=41,gain=14.3818359,cover=473.440155
					41:leaf=-0.241707101,cover=5.60100555
					42:leaf=0.211420774,cover=467.839142
			10:[f89<-9.53674316e-07] yes=21,no=22,missing=21,gain=5.27059174,cover=341.526733
				21:[f264<-9.53674316e-07] yes=43,no=44,missing=43,gain=4.21688843,cover=247.457932
					43:leaf=0.198501378,cover=215.288559
					44:leaf=0.0786673427,cover=32.1693726
				22:[f28<-9.53674316e-07] yes=45,no=46,missing=45,gain=6.93409634,cover=94.0687943
					45:leaf=-0.00972718745,cover=34.2213249
					46:leaf=0.158799052,cover=59.8474693
	2:[f74<-9.53674316e-07] yes=5,no=6,missing=5,gain=21.4872437,cover=1849.95154
		5:[f162<-9.53674316e-07] yes=11,no=12,missing=11,gain=17.2645264,cover=1721.83337
			11:[f153<-9.53674316e-07] yes=23,no=24,missing=23,gain=13.4068604,cover=1696.30652
				23:[f280<-9.53674316e-07] yes=47,no=48,missing=47,gain=21.0473022,cover=1076.73401
					47:leaf=-0.161664918,cover=229.448929
					48:leaf=-0.265491009,cover=847.285095
				24:[f126<-9.53674316e-07] yes=49,no=50,missing=49,gain=11.5456085,cover=619.572449
					49:leaf=-0.157908797,cover=418.55014
					50:leaf=-0.246657982,cover=201.022308
			12:[f51<-9.53674316e-07] yes=25,no=26,missing=25,gain=4.17810488,cover=25.5268364
				25:[f37<-9.53674316e-07] yes=51,no=52,missing=51,gain=4.59104824,cover=23.7327747
					51:leaf=0.143490896,cover=17.0700397
					52:leaf=-0.134895071,cover=6.66273546
				26:leaf=-0.32427898,cover=1.79406214
		6:[f9<-9.53674316e-07] yes=13,no=14,missing=13,gain=6.16579914,cover=128.118225
			13:[f187<-9.53674316e-07] yes=27,no=28,missing=27,gain=6.73258352,cover=71.795311
				27:[f175<-9.53674316e-07] yes=53,no=54,missing=53,gain=6.21754217,cover=50.8255157
					53:leaf=-0.124973975,cover=46.1014481
					54:leaf=0.208515704,cover=4.72406864
				28:[f108<-9.53674316e-07] yes=55,no=56,missing=55,gain=5.6260128,cover=20.9697933
					55:leaf=0.165722117,cover=18.5633774
					56:leaf=-0.256599367,cover=2.40641642
			14:[f194<-9.53674316e-07] yes=29,no=30,missing=29,gain=5.94868469,cover=56.3229218
				29:[f148<-9.53674316e-07] yes=57,no=58,missing=57,gain=5.52746534,cover=25.2272263
					57:leaf=0.0408302359,cover=17.6488476
					58:leaf=-0.250937521,cover=7.57837725
				30:[f108<-9.53674316e-07] yes=59,no=60,missing=59,gain=3.34221268,cover=31.0956936
					59:leaf=-0.285541683,cover=27.3546124
					60:leaf=0.0128193591,cover=3.74108243
booster[19]:
0:[f142<-9.53674316e-07] yes=1,no=2,missing=1,gain=879.16687,cover=233160.906
	1:[f270<-9.53674316e-07] yes=3,no=4,missing=3,gain=781.903381,cover=222631.594
		3:[f55<-9.53674316e-07] yes=7,no=8,missing=7,gain=650.567017,cover=199949.938
			7:[f5<-9.53674316e-07] yes=15,no=16,missing=15,gain=664.565369,cover=191876.766
				15:[f119<-9.53674316e-07] yes=31,no=32,missing=31,gain=454.320068,cover=47285.125
					31:leaf=0.0234519113,cover=31510.4492
					32:leaf=0.0858190581,cover=15774.6729
				16:[f161<-9.53674316e-07] yes=33,no=34,missing=33,gain=572.225891,cover=144591.641
					33:leaf=0.00012516354,cover=140638.672
					34:leaf=0.115845516,cover=3952.95728
			8:[f109<-9.53674316e-07] yes=17,no=18,missing=17,gain=62.1739807,cover=8073.17676
				17:[f280<-9.53674316e-07] yes=35,no=36,missing=35,gain=42.9640198,cover=7678.02979
					35:leaf=-0.0972532481,cover=2790.71533
					36:leaf=-0.0505769886,cover=4887.31445
				18:[f21<-9.53674316e-07] yes=37,no=38,missing=37,gain=12.9001312,cover=395.147125
					37:leaf=-0.250064731,cover=176.541565
					38:leaf=-0.139651805,cover=218.605576
		4:[f121<-9.53674316e-07] yes=9,no=10,missing=9,gain=566.071472,cover=22681.666
			9:[f92<-9.53674316e-07] yes=19,no=20,missing=19,gain=134.476563,cover=11683.3477
				19:[f250<-9.53674316e-07] yes=39,no=40,missing=39,gain=119.422119,cover=11102.2109
					39:leaf=-0.104484029,cover=8552.91406
					40:leaf=-0.0304920953,cover=2549.2959
				20:[f148<-9.53674316e-07] yes=41,no=42,missing=41,gain=15.4031372,cover=581.13678
					41:leaf=-0.253175467,cover=513.866821
					42:leaf=-0.0985251218,cover=67.2699356
			10:[f203<-9.53674316e-07] yes=21,no=22,missing=21,gain=167.446198,cover=10998.3184
				21:[f250<-9.53674316e-07] yes=43,no=44,missing=43,gain=85.2328796,cover=8160.18262
					43:leaf=-0.0453547165,cover=5144.04834
					44:leaf=0.0181563683,cover=3016.13379
				22:[f45<-9.53674316e-07] yes=45,no=46,missing=45,gain=27.2610779,cover=2838.13599
					45:leaf=0.12587212,cover=504.826416
					46:leaf=0.0489891879,cover=2333.30957
	2:[f105<-9.53674316e-07] yes=5,no=6,missing=5,gain=99.6711426,cover=10529.3115
		5:[f119<-9.53674316e-07] yes=11,no=12,missing=11,gain=74.8432617,cover=7763.15186
			11:[f155<-9.53674316e-07] yes=23,no=24,missing=23,gain=52.2384033,cover=5406.51025
				23:[f126<-9.53674316e-07] yes=47,no=48,missing=47,gain=39.1265869,cover=5344.73486
					47:leaf=-0.122035652,cover=5282.56885
					48:leaf=-0.360078841,cover=62.1658707
				24:[f134<-9.53674316e-07] yes=49,no=50,missing=49,gain=13.593874,cover=61.7754288
					49:leaf=0.234343678,cover=45.2967529
					50:leaf=-0.0790055245,cover=16.4786777
			12:[f5<-9.53674316e-07] yes=25,no=26,missing=25,gain=35.7706299,cover=2356.6416
				25:[f270<-9.53674316e-07] yes=51,no=52,missing=51,gain=8.46618557,cover=395.776733
					51:leaf=0.0364326388,cover=369.551056
					52:leaf=-0.136965275,cover=26.2256718
				26:[f163<-9.53674316e-07] yes=53,no=54,missing=53,gain=16.3618164,cover=1960.86487
					53:leaf=-0.0825861394,cover=1792.4718
					54:leaf=0.015136891,cover=168.393066
		6:[f148<-9.53674316e-07] yes=13,no=14,missing=13,gain=42.0126381,cover=2766.15918
			13:[f185<-9.53674316e-07] yes=27,no=28,missing=27,gain=36.2799149,cover=2127.61816
				27:[f119<-9.53674316e-07] yes=55,no=56,missing=55,gain=19.1602936,cover=1935.552
					55:leaf=-0.0866772756,cover=1411.49011
					56:leaf=-0.0194662083,cover=524.061951
				28:[f248<-9.53674316e-07] yes=57,no=58,missing=57,gain=8.41603947,cover=192.066025
					57:leaf=0.0532169417,cover=183.362946
					58:leaf=0.340738893,cover=8.70307446
			14:[f159<-9.53674316e-07] yes=29,no=30,missing=29,gain=32.4925728,cover=638.54126
				29:[f193<-9.53674316e-07] yes=59,no=60,missing=59,gain=14.2787886,cover=404.88858
					59:leaf=-0.0314305834,cover=389.292328
					60:leaf=0.252735049,cover=15.5962391
				30:[f31<-9.53674316e-07] yes=61,no=62,missing=61,gain=15.6759644,cover=233.652664
					61:leaf=0.215491325,cover=92.8119278
					62:leaf=0.0566167049,cover=140.840744
booster[20]:
0:[f245<-9.53674316e-07] yes=1,no=2,missing=1,gain=802.633118,cover=232185.156
	1:[f3<-9.53674316e-07] yes=3,no=4,missing=3,gain=730.501038,cover=228049.859
		3:[f280<-9.53674316e-07] yes=7,no=8,missing=7,gain=609.387817,cover=143866.094
			7:[f272<-9.53674316e-07] yes=15,no=16,missing=15,gain=444.2005,cover=30369.0137
				15:[f247<-9.53674316e-07] yes=31,no=32,missing=31,gain=186.328156,cover=9488.7373
					31:leaf=-0.0353708379,cover=9102.33496
					32:leaf=0.177070126,cover=386.402405
				16:[f133<-9.53674316e-07] yes=33,no=34,missing=33,gain=289.71405,cover=20880.2773
					33:leaf=0.0473742299,cover=20590.5234
					34:leaf=0.348959774,cover=289.753296
			8:[f134<-9.53674316e-07] yes=17,no=18,missing=17,gain=523.183044,cover=113497.086
				17:[f159<-9.53674316e-07] yes=35,no=36,missing=35,gain=520.162354,cover=100046.211
					35:leaf=-0.0309480838,cover=98452.4063
					36:leaf=0.141766772,cover=1593.80688
				18:[f132<-9.53674316e-07] yes=37,no=38,missing=37,gain=190.721329,cover=13450.8721
					37:leaf=0.0252179708,cover=12545.6143
					38:leaf=0.167731032,cover=905.257568
		4:[f20<-9.53674316e-07] yes=9,no=10,missing=9,gain=641.790894,cover=84183.75
			9:[f32<-9.53674316e-07] yes=19,no=20,missing=19,gain=160.937698,cover=15586.5859
				19:[f280<-9.53674316e-07] yes=39,no=40,missing=39,gain=151.799072,cover=1784.10522
					39:leaf=-0.0611158609,cover=650.270996
					40:leaf=0.120606862,cover=1133.83423
				20:[f9<-9.53674316e-07] yes=41,no=42,missing=41,gain=105.422546,cover=13802.4805
					41:leaf=-0.0254455395,cover=10090.2412
					42:leaf=-0.0845728889,cover=3712.2395
			10:[f98<-9.53674316e-07] yes=21,no=22,missing=21,gain=405.505859,cover=68597.1641
				21:[f207<-9.53674316e-07] yes=43,no=44,missing=43,gain=291.128784,cover=53088.6602
					43:leaf=0.0525323264,cover=52124.3828
					44:leaf=-0.113748692,cover=964.276794
				22:[f41<-9.53674316e-07] yes=45,no=46,missing=45,gain=181.659515,cover=15508.5078
					45:leaf=-0.0532726534,cover=4917.97461
					46:leaf=0.0164938699,cover=10590.5332
	2:[f180<-9.53674316e-07] yes=5,no=6,missing=5,gain=148.267334,cover=4135.30957
		5:[f183<-9.53674316e-07] yes=11,no=12,missing=11,gain=70.4761963,cover=3654.39282
			11:[f42<-9.53674316e-07] yes=23,no=24,missing=23,gain=59.4730225,cover=2184.6189
				23:[f272<-9.53674316e-07] yes=47,no=48,missing=47,gain=25.7839966,cover=1775.83984
					47:leaf=-0.30262059,cover=234.999435
					48:leaf=-0.195138857,cover=1540.84033
				24:[f165<-9.53674316e-07] yes=49,no=50,missing=49,gain=13.5116425,cover=408.779022
					49:leaf=-0.104425229,cover=351.003998
					50:leaf=0.0513912253,cover=57.7750359
			12:[f251<-9.53674316e-07] yes=25,no=26,missing=25,gain=30.2177582,cover=1469.77393
				25:[f184<-9.53674316e-07] yes=51,no=52,missing=51,gain=25.3756104,cover=1027.45825
					51:leaf=-0.145449698,cover=914.37262
					52:leaf=0.0051387269,cover=113.085655
				26:[f197<-9.53674316e-07] yes=53,no=54,missing=53,gain=22.0994358,cover=442.315674
					53:leaf=-0.138645619,cover=129.634384
					54:leaf=0.00825314317,cover=312.681305
		6:[f160<-9.53674316e-07] yes=13,no=14,missing=13,gain=16.70158,cover=480.91684
			13:[f109<-9.53674316e-07] yes=27,no=28,missing=27,gain=11.0688238,cover=442.874847
				27:[f37<-9.53674316e-07] yes=55,no=56,missing=55,gain=9.15957642,cover=430.214844
					55:leaf=0.06814529,cover=369.386536
					56:leaf=-0.0567810051,cover=60.8283081
				28:[f27<-9.53674316e-07] yes=57,no=58,missing=57,gain=2.88502359,cover=12.6600142
					57:leaf=-0.387073845,cover=4.81905937
					58:leaf=-0.0915564671,cover=7.84095526
			14:[f143<-9.53674316e-07] yes=29,no=30,missing=29,gain=13.240942,cover=38.0420074
				29:[f208<-9.53674316e-07] yes=59,no=60,missing=59,gain=4.72457361,cover=27.8134918
					59:leaf=0.221012846,cover=3.92925739
					60:leaf=-0.101371296,cover=23.8842335
				30:[f270<-9.53674316e-07] yes=61,no=62,missing=61,gain=3.71705246,cover=10.2285156
					61:leaf=-0.524857283,cover=7.98585033
					62:leaf=-0.0619373173,cover=2.24266529
booster[21]:
0:[f153<-9.53674316e-07] yes=1,no=2,missing=1,gain=690.084595,cover=230964.188
	1:[f90<-9.53674316e-07] yes=3,no=4,missing=3,gain=615.267273,cover=219215.641
		3:[f247<-9.53674316e-07] yes=7,no=8,missing=7,gain=616.528198,cover=197987.766
			7:[f119<-9.53674316e-07] yes=15,no=16,missing=15,gain=708.619507,cover=174471.859
				15:[f126<-9.53674316e-07] yes=31,no=32,missing=31,gain=1124.89929,cover=130969.547
					31:leaf=-0.0161841009,cover=129986.016
					32:leaf=-0.338070631,cover=983.53009
				16:[f91<-9.53674316e-07] yes=33,no=34,missing=33,gain=522.583618,cover=43502.3164
					33:leaf=0.0395665318,cover=36843.7266
					34:leaf=-0.0517515987,cover=6658.58887
			8:[f124<-9.53674316e-07] yes=17,no=18,missing=17,gain=294.832886,cover=23515.9082
				17:[f89<-9.53674316e-07] yes=35,no=36,missing=35,gain=218.533386,cover=3384.2019
					35:leaf=0.164304927,cover=2703.8645
					36:leaf=-0.0258721039,cover=680.337524
				18:[f248<-9.53674316e-07] yes=37,no=38,missing=37,gain=179.715683,cover=20131.7051
					37:leaf=0.0243020672,cover=19247.0918
					38:leaf=0.162522584,cover=884.613708
		4:[f18<-9.53674316e-07] yes=9,no=10,missing=9,gain=233.921875,cover=21227.8672
			9:[f124<-9.53674316e-07] yes=19,no=20,missing=19,gain=90.4343262,cover=5670.09326
				19:[f8<-9.53674316e-07] yes=39,no=40,missing=39,gain=54.5162048,cover=1670.3324
					39:leaf=0.176194161,cover=1578.06238
					40:leaf=-0.0604785644,cover=92.2700272
				20:[f166<-9.53674316e-07] yes=41,no=42,missing=41,gain=36.374115,cover=3999.76074
					41:leaf=0.0683354288,cover=3437.34375
					42:leaf=0.150650024,cover=562.417053
			10:[f155<-9.53674316e-07] yes=21,no=22,missing=21,gain=95.3146515,cover=15557.7734
				21:[f108<-9.53674316e-07] yes=43,no=44,missing=43,gain=70.6203156,cover=15282.3955
					43:leaf=0.0368235186,cover=13794.8643
					44:leaf=-0.0319605321,cover=1487.53149
				22:[f97<-9.53674316e-07] yes=45,no=46,missing=45,gain=9.41795349,cover=275.378021
					45:leaf=0.217316642,cover=267.730469
					46:leaf=-0.108739644,cover=7.64755774
	2:[f105<-9.53674316e-07] yes=5,no=6,missing=5,gain=153.78949,cover=11748.5449
		5:[f89<-9.53674316e-07] yes=11,no=12,missing=11,gain=65.1575317,cover=6786.74756
			11:[f195<-9.53674316e-07] yes=23,no=24,missing=23,gain=45.986145,cover=6103.56885
				23:[f163<-9.53674316e-07] yes=47,no=48,missing=47,gain=38.397583,cover=2911.98584
					47:leaf=-0.0729503185,cover=2689.75098
					48:leaf=0.0566030666,cover=222.234756
				24:[f138<-9.53674316e-07] yes=49,no=50,missing=49,gain=35.0205688,cover=3191.58325
					49:leaf=-0.120782934,cover=3094.82935
					50:leaf=0.0619762875,cover=96.7537231
			12:[f2<-9.53674316e-07] yes=25,no=26,missing=25,gain=12.9806519,cover=683.178894
				25:[f163<-9.53674316e-07] yes=51,no=52,missing=51,gain=8.02716064,cover=419.160034
					51:leaf=-0.167747647,cover=380.270264
					52:leaf=-0.0239933487,cover=38.8897667
				26:[f118<-9.53674316e-07] yes=53,no=54,missing=53,gain=7.16394043,cover=264.01886
					53:leaf=-0.272358716,cover=188.322144
					54:leaf=-0.158920109,cover=75.6967087
		6:[f234<-9.53674316e-07] yes=13,no=14,missing=13,gain=57.4149971,cover=4961.79736
			13:[f214<-9.53674316e-07] yes=27,no=28,missing=27,gain=44.0974731,cover=4281.56982
				27:[f74<-9.53674316e-07] yes=55,no=56,missing=55,gain=36.9576149,cover=3970.64648
					55:leaf=-0.0436534286,cover=3647.21509
					56:leaf=0.0620262884,cover=323.431427
				28:[f202<-9.53674316e-07] yes=57,no=58,missing=57,gain=7.22080994,cover=310.923065
					57:leaf=-0.135747805,cover=278.746918
					58:leaf=-0.286380649,cover=32.1761208
			14:[f114<-9.53674316e-07] yes=29,no=30,missing=29,gain=13.0519924,cover=680.227966
				29:[f170<-9.53674316e-07] yes=59,no=60,missing=59,gain=9.07016945,cover=370.337219
					59:leaf=0.00287814811,cover=357.479126
					60:leaf=0.250251323,cover=12.8580847
				30:[f98<-9.53674316e-07] yes=61,no=62,missing=61,gain=14.5196171,cover=309.890778
					61:leaf=0.12934503,cover=243.419189
					62:leaf=-0.0284081865,cover=66.4715881
booster[22]:
0:[f162<-9.53674316e-07] yes=1,no=2,missing=1,gain=645.093323,cover=230276.328
	1:[f265<-9.53674316e-07] yes=3,no=4,missing=3,gain=629.465515,cover=228188.656
		3:[f141<-9.53674316e-07] yes=7,no=8,missing=7,gain=602.374268,cover=201029.844
			7:[f42<-9.53674316e-07] yes=15,no=16,missing=15,gain=654.079468,cover=190676.797
				15:[f120<-9.53674316e-07] yes=31,no=32,missing=31,gain=536.19397,cover=158730.313
					31:leaf=-0.0172690284,cover=156168.906
					32:leaf=-0.15562363,cover=2561.4104
				16:[f89<-9.53674316e-07] yes=33,no=34,missing=33,gain=355.393158,cover=31946.4844
					33:leaf=0.0371101201,cover=29271.9902
					34:leaf=-0.0771173313,cover=2674.49487
			8:[f143<-9.53674316e-07] yes=17,no=18,missing=17,gain=141.401093,cover=10353.0498
				17:[f45<-9.53674316e-07] yes=35,no=36,missing=35,gain=111.210815,cover=9235.15527
					35:leaf=0.0353115238,cover=3779.65991
					36:leaf=0.10227605,cover=5455.49561
				18:[f214<-9.53674316e-07] yes=37,no=38,missing=37,gain=23.2203445,cover=1117.89417
					37:leaf=-0.0265980121,cover=1045.63953
					38:leaf=-0.201372519,cover=72.2547226
		4:[f214<-9.53674316e-07] yes=9,no=10,missing=9,gain=239.634796,cover=27158.8047
			9:[f25<-9.53674316e-07] yes=19,no=20,missing=19,gain=254.433228,cover=25951.3477
				19:[f270<-9.53674316e-07] yes=39,no=40,missing=39,gain=108.625305,cover=17755.5742
					39:leaf=0.033842463,cover=16273.5
					40:leaf=-0.0509699397,cover=1482.07324
				20:[f160<-9.53674316e-07] yes=41,no=42,missing=41,gain=362.826111,cover=8195.77441
					41:leaf=0.112860821,cover=7293.81348
					42:leaf=-0.0887582451,cover=901.960632
			10:[f219<-9.53674316e-07] yes=21,no=22,missing=21,gain=31.0778732,cover=1207.45642
				21:[f160<-9.53674316e-07] yes=43,no=44,missing=43,gain=26.0360718,cover=879.322083
					43:leaf=-0.0969213471,cover=744.831421
					44:leaf=-0.240308568,cover=134.490616
				22:[f0<-9.53674316e-07] yes=45,no=46,missing=45,gain=12.9975367,cover=328.134369
					45:leaf=-0.0376310311,cover=273.597046
					46:leaf=0.121508725,cover=54.5373383
	2:[f163<-9.53674316e-07] yes=5,no=6,missing=5,gain=166.328369,cover=2087.67749
		5:[f43<-9.53674316e-07] yes=11,no=12,missing=11,gain=17.2432251,cover=524.7323
			11:[f135<-9.53674316e-07] yes=23,no=24,missing=23,gain=2.8480072,cover=129.922714
				23:[f11<-9.53674316e-07] yes=47,no=48,missing=47,gain=2.80621338,cover=127.442642
					47:leaf=0.423523992,cover=122.706787
					48:leaf=0.145745203,cover=4.73586035
				24:[f9<-9.53674316e-07] yes=49,no=50,missing=49,gain=0.99305588,cover=2.48007441
					49:leaf=0.182687357,cover=1.38063407
					50:leaf=-0.104990356,cover=1.09944022
			12:[f119<-9.53674316e-07] yes=25,no=26,missing=25,gain=5.81262207,cover=394.809601
				25:[f157<-9.53674316e-07] yes=51,no=52,missing=51,gain=4.41461182,cover=288.994781
					51:leaf=0.304682434,cover=287.161255
					52:leaf=-0.112351872,cover=1.83352458
				26:[f153<-9.53674316e-07] yes=53,no=54,missing=53,gain=10.0853004,cover=105.814812
					53:leaf=0.240893796,cover=97.4851608
					54:leaf=-0.0935112238,cover=8.32965279
		6:[f113<-9.53674316e-07] yes=13,no=14,missing=13,gain=36.6082611,cover=1562.94519
			13:[f30<-9.53674316e-07] yes=27,no=28,missing=27,gain=18.3150787,cover=1240.12842
				27:[f28<-9.53674316e-07] yes=55,no=56,missing=55,gain=16.9275055,cover=833.146179
					55:leaf=0.0866037458,cover=542.255066
					56:leaf=0.176587999,cover=290.891083
				28:[f250<-9.53674316e-07] yes=57,no=58,missing=57,gain=15.5992908,cover=406.982178
					57:leaf=0.00114572269,cover=281.689667
					58:leaf=0.128037691,cover=125.292511
			14:[f103<-9.53674316e-07] yes=29,no=30,missing=29,gain=12.7278137,cover=322.816864
				29:[f207<-9.53674316e-07] yes=59,no=60,missing=59,gain=7.6436615,cover=240.072571
					59:leaf=0.25268051,cover=229.490936
					60:leaf=-0.00739307469,cover=10.5816393
				30:[f180<-9.53674316e-07] yes=61,no=62,missing=61,gain=12.7239017,cover=82.7442856
					61:leaf=0.159844145,cover=66.9417267
					62:leaf=-0.133048937,cover=15.8025513
booster[23]:
0:[f109<-9.53674316e-07] yes=1,no=2,missing=1,gain=604.469482,cover=229577.75
	1:[f264<-9.53674316e-07] yes=3,no=4,missing=3,gain=545.914429,cover=220508.906
		3:[f278<-9.53674316e-07] yes=7,no=8,missing=7,gain=612.538086,cover=201184.188
			7:[f148<-9.53674316e-07] yes=15,no=16,missing=15,gain=472.235352,cover=199329.813
				15:[f3<-9.53674316e-07] yes=31,no=32,missing=31,gain=480.671234,cover=169455.422
					31:leaf=-0.00882692076,cover=108527.75
					32:leaf=0.0244691074,cover=60927.6641
				16:[f155<-9.53674316e-07] yes=33,no=34,missing=33,gain=218.22876,cover=29874.3906
					33:leaf=0.0397625044,cover=29062.4668
					34:leaf=0.197365358,cover=811.92395
			8:[f85<-9.53674316e-07] yes=17,no=18,missing=17,gain=260.313354,cover=1854.37366
				17:[f112<-9.53674316e-07] yes=35,no=36,missing=35,gain=12.4625244,cover=641.678528
					35:leaf=-0.248977259,cover=183.311935
					36:leaf=-0.345393717,cover=458.366577
				18:[f170<-9.53674316e-07] yes=37,no=38,missing=37,gain=22.4882813,cover=1212.69507
					37:leaf=-0.0867536366,cover=1197.14172
					38:leaf=0.265905768,cover=15.5533791
		4:[f47<-9.53674316e-07] yes=9,no=10,missing=9,gain=99.0491028,cover=19324.7324
			9:[f272<-9.53674316e-07] yes=19,no=20,missing=19,gain=58.7294693,cover=9444.16016
				19:[f3<-9.53674316e-07] yes=39,no=40,missing=39,gain=45.8950272,cover=3571.02173
					39:leaf=-0.0792338774,cover=2268.39185
					40:leaf=-0.00857931282,cover=1302.62988
				20:[f5<-9.53674316e-07] yes=41,no=42,missing=41,gain=54.2139702,cover=5873.13867
					41:leaf=0.0422856845,cover=1605.68274
					42:leaf=-0.0223669857,cover=4267.45557
			10:[f165<-9.53674316e-07] yes=21,no=22,missing=21,gain=88.6227112,cover=9880.57227
				21:[f105<-9.53674316e-07] yes=43,no=44,missing=43,gain=91.6191406,cover=8724.23438
					43:leaf=-0.0952025801,cover=6357.90527
					44:leaf=-0.0260415915,cover=2366.32886
				22:[f112<-9.53674316e-07] yes=45,no=46,missing=45,gain=16.1757183,cover=1156.33789
					45:leaf=0.0271997489,cover=975.803162
					46:leaf=-0.0703235865,cover=180.534683
	2:[f176<-9.53674316e-07] yes=5,no=6,missing=5,gain=125.397217,cover=9068.84473
		5:[f135<-9.53674316e-07] yes=11,no=12,missing=11,gain=108.129211,cover=8641.62012
			11:[f234<-9.53674316e-07] yes=23,no=24,missing=23,gain=82.4169617,cover=7355.03955
				23:[f112<-9.53674316e-07] yes=47,no=48,missing=47,gain=49.4779053,cover=6696.72461
					47:leaf=-0.059709765,cover=4183.66504
					48:leaf=-0.112995952,cover=2513.05933
				24:[f110<-9.53674316e-07] yes=49,no=50,missing=49,gain=19.1013546,cover=658.31488
					49:leaf=0.0515830964,cover=570.283569
					50:leaf=-0.0978533849,cover=88.031311
			12:[f234<-9.53674316e-07] yes=25,no=26,missing=25,gain=25.0136719,cover=1286.58105
				25:[f74<-9.53674316e-07] yes=51,no=52,missing=51,gain=22.4946289,cover=1152.69141
					51:leaf=-0.193972811,cover=1011.09277
					52:leaf=-0.0657084808,cover=141.598572
				26:[f139<-9.53674316e-07] yes=53,no=54,missing=53,gain=6.88854599,cover=133.889694
					53:leaf=-0.10089498,cover=74.7628937
					54:leaf=0.0352802277,cover=59.1267967
		6:[f20<-9.53674316e-07] yes=13,no=14,missing=13,gain=9.48868942,cover=427.224152
			13:[f90<-9.53674316e-07] yes=27,no=28,missing=27,gain=6.95362568,cover=66.1775131
				27:[f25<-9.53674316e-07] yes=55,no=56,missing=55,gain=6.97385645,cover=62.810276
					55:leaf=0.0707205534,cover=43.2831268
					56:leaf=-0.140823647,cover=19.5271473
				28:[f21<-9.53674316e-07] yes=57,no=58,missing=57,gain=0.308761597,cover=3.36723566
					57:leaf=-0.476625472,cover=1.78192067
					58:leaf=-0.141976744,cover=1.58531499
			14:[f135<-9.53674316e-07] yes=29,no=30,missing=29,gain=10.4666748,cover=361.046631
				29:[f203<-9.53674316e-07] yes=59,no=60,missing=59,gain=6.65737152,cover=278.115662
					59:leaf=0.145247668,cover=249.02475
					60:leaf=-0.00617826264,cover=29.0909119
				30:[f165<-9.53674316e-07] yes=61,no=62,missing=61,gain=6.82654524,cover=82.9309616
					61:leaf=0.0428027138,cover=71.6708984
					62:leaf=-0.199216738,cover=11.2600641
booster[24]:
0:[f8<-9.53674316e-07] yes=1,no=2,missing=1,gain=605.351807,cover=228677.609
	1:[f221<-9.53674316e-07] yes=3,no=4,missing=3,gain=528.917908,cover=214501.766
		3:[f40<-9.53674316e-07] yes=7,no=8,missing=7,gain=513.76239,cover=202143.594
			7:[f110<-9.53674316e-07] yes=15,no=16,missing=15,gain=474.789124,cover=197295.984
				15:[f142<-9.53674316e-07] yes=31,no=32,missing=31,gain=461.797272,cover=193326.75
					31:leaf=0.00328191067,cover=184918.797
					32:leaf=-0.0686021447,cover=8407.95117
				16:[f176<-9.53674316e-07] yes=33,no=34,missing=33,gain=58.321228,cover=3969.24341
					33:leaf=-0.111749306,cover=3823.5686
					34:leaf=0.0812168866,cover=145.674835
			8:[f280<-9.53674316e-07] yes=17,no=18,missing=17,gain=52.9040222,cover=4847.604
				17:[f45<-9.53674316e-07] yes=35,no=36,missing=35,gain=45.360321,cover=894.158997
					35:leaf=-0.0181466695,cover=109.277519
					36:leaf=0.187979639,cover=784.88147
				18:[f248<-9.53674316e-07] yes=37,no=38,missing=37,gain=32.37323,cover=3953.44482
					37:leaf=0.0745243579,cover=3680.90674
					38:leaf=0.181618676,cover=272.538239
		4:[f157<-9.53674316e-07] yes=9,no=10,missing=9,gain=165.421997,cover=12358.165
			9:[f112<-9.53674316e-07] yes=19,no=20,missing=19,gain=128.558594,cover=12005.833
				19:[f114<-9.53674316e-07] yes=39,no=40,missing=39,gain=57.8902588,cover=7464.51953
					39:leaf=0.0775977671,cover=5299.89453
					40:leaf=0.135860205,cover=2164.625
				20:[f280<-9.53674316e-07] yes=41,no=42,missing=41,gain=134.532837,cover=4541.31396
					41:leaf=-0.296913147,cover=109.229225
					42:leaf=0.038621258,cover=4432.08447
			10:[f186<-9.53674316e-07] yes=21,no=22,missing=21,gain=9.73700714,cover=352.331268
				21:[f138<-9.53674316e-07] yes=43,no=44,missing=43,gain=4.19165802,cover=225.572845
					43:leaf=-0.197042719,cover=176.604767
					44:leaf=-0.0947735608,cover=48.968071
				22:[f0<-9.53674316e-07] yes=45,no=46,missing=45,gain=5.87035275,cover=126.758415
					45:leaf=-0.0977049544,cover=107.776215
					46:leaf=0.0800328478,cover=18.9822025
	2:[f279<-9.53674316e-07] yes=5,no=6,missing=5,gain=116.786804,cover=14175.8477
		5:[f0<-9.53674316e-07] yes=11,no=12,missing=11,gain=110.91217,cover=13599.4102
			11:[f45<-9.53674316e-07] yes=23,no=24,missing=23,gain=78.0224609,cover=12359.2383
				23:[f280<-9.53674316e-07] yes=47,no=48,missing=47,gain=47.9338303,cover=2305.21338
					47:leaf=-0.0752026886,cover=965.997681
					48:leaf=0.0124400323,cover=1339.21582
				24:[f247<-9.53674316e-07] yes=49,no=50,missing=49,gain=74.0075073,cover=10054.0244
					49:leaf=-0.0934253633,cover=9184.93164
					50:leaf=-0.00183150184,cover=869.092529
			12:[f27<-9.53674316e-07] yes=25,no=26,missing=25,gain=50.71875,cover=1240.17249
				25:[f186<-9.53674316e-07] yes=51,no=52,missing=51,gain=9.31588936,cover=461.75769
					51:leaf=-0.0791557357,cover=374.959076
					52:leaf=0.0296002831,cover=86.7986145
				26:[f195<-9.53674316e-07] yes=53,no=54,missing=53,gain=21.0937424,cover=778.414856
					53:leaf=0.133667797,cover=273.383331
					54:leaf=0.0302487053,cover=505.031525
		6:[f163<-9.53674316e-07] yes=13,no=14,missing=13,gain=11.7395668,cover=576.437256
			13:[f214<-9.53674316e-07] yes=27,no=28,missing=27,gain=9.31575584,cover=513.564331
				27:[f247<-9.53674316e-07] yes=55,no=56,missing=55,gain=9.14343071,cover=493.795868
					55:leaf=0.0490720794,cover=428.807495
					56:leaf=0.169318885,cover=64.9883575
				28:[f11<-9.53674316e-07] yes=57,no=58,missing=57,gain=4.82309437,cover=19.768446
					57:leaf=-0.205186009,cover=16.4891357
					58:leaf=0.157743156,cover=3.27931118
			14:[f190<-9.53674316e-07] yes=29,no=30,missing=29,gain=4.25418472,cover=62.8729286
				29:[f41<-9.53674316e-07] yes=59,no=60,missing=59,gain=3.34609222,cover=61.0240593
					59:leaf=-0.183301702,cover=1.20343196
					60:leaf=0.2187507,cover=59.8206291
				30:leaf=-0.184608623,cover=1.84887052
booster[25]:
0:[f117<-9.53674316e-07] yes=1,no=2,missing=1,gain=560.451416,cover=227747.063
	1:[f108<-9.53674316e-07] yes=3,no=4,missing=3,gain=516.447021,cover=221370.484
		3:[f13<-9.53674316e-07] yes=7,no=8,missing=7,gain=449.953369,cover=204132.031
			7:[f5<-9.53674316e-07] yes=15,no=16,missing=15,gain=463.356384,cover=193829.297
				15:[f112<-9.53674316e-07] yes=31,no=32,missing=31,gain=290.867645,cover=50058.3672
					31:leaf=0.0367679335,cover=44007.1055
